digraph Tree {
node [shape=box, style="filled, rounded", color="black", fontname=helvetica] ;
edge [fontname=helvetica] ;
0 [label="quantity_group_dry <= 0.5\ngini = 0.549\nsamples = 43191\nvalue = [23590, 2978, 16623]\nclass = 0", fillcolor="#f8decb"] ;
1 [label="waterpoint_type_other <= 0.5\ngini = 0.525\nsamples = 38659\nvalue = [23483, 2954, 12222]\nclass = 0", fillcolor="#f4c9ab"] ;
0 -> 1 [labeldistance=2.5, labelangle=45, headlabel="True"] ;
2 [label="amount_tsh <= 1.5\ngini = 0.495\nsamples = 35036\nvalue = [22873, 2739, 9424]\nclass = 0", fillcolor="#f1bd97"] ;
1 -> 2 ;
3 [label="waterpoint_type_communal standpipe multiple <= 0.5\ngini = 0.533\nsamples = 22607\nvalue = [13504, 1811, 7292]\nclass = 0", fillcolor="#f4ccaf"] ;
2 -> 3 ;
4 [label="basin_Lake Nyasa <= 0.5\ngini = 0.519\nsamples = 20395\nvalue = [12670, 1642, 6083]\nclass = 0", fillcolor="#f3c5a4"] ;
3 -> 4 ;
5 [label="latitude <= -5.324\ngini = 0.529\nsamples = 18308\nvalue = [11057, 1468, 5783]\nclass = 0", fillcolor="#f4caac"] ;
4 -> 5 ;
6 [label="extraction_type_other <= 0.5\ngini = 0.566\nsamples = 6283\nvalue = [3272, 532, 2479]\nclass = 0", fillcolor="#fae5d6"] ;
5 -> 6 ;
7 [label="payment_never pay <= 0.5\ngini = 0.563\nsamples = 6013\nvalue = [3231, 526, 2256]\nclass = 0", fillcolor="#f8decc"] ;
6 -> 7 ;
8 [label="longitude <= 33.215\ngini = 0.535\nsamples = 1829\nvalue = [1135, 231, 463]\nclass = 0", fillcolor="#f2c19e"] ;
7 -> 8 ;
9 [label="lga_Chunya <= 0.5\ngini = 0.612\nsamples = 534\nvalue = [218, 77, 239]\nclass = 2", fillcolor="#f7f2fd"] ;
8 -> 9 ;
10 [label="longitude <= 32.644\ngini = 0.577\nsamples = 465\nvalue = [201, 42, 222]\nclass = 2", fillcolor="#f5effd"] ;
9 -> 10 ;
11 [label="quality_group_unknown <= 0.5\ngini = 0.479\nsamples = 108\nvalue = [34, 4, 70]\nclass = 2", fillcolor="#c29ff2"] ;
10 -> 11 ;
12 [label="longitude <= 31.272\ngini = 0.512\nsamples = 94\nvalue = [34, 4, 56]\nclass = 2", fillcolor="#d1b6f5"] ;
11 -> 12 ;
13 [label="longitude <= 31.228\ngini = 0.526\nsamples = 21\nvalue = [13, 2, 6]\nclass = 0", fillcolor="#f3c4a3"] ;
12 -> 13 ;
14 [label="gps_height <= 1092.5\ngini = 0.594\nsamples = 16\nvalue = [8, 2, 6]\nclass = 0", fillcolor="#fae6d7"] ;
13 -> 14 ;
15 [label="gini = 0.0\nsamples = 5\nvalue = [5, 0, 0]\nclass = 0", fillcolor="#e58139"] ;
14 -> 15 ;
16 [label="waterpoint_type_improved spring <= 0.5\ngini = 0.595\nsamples = 11\nvalue = [3, 2, 6]\nclass = 2", fillcolor="#d0b5f5"] ;
14 -> 16 ;
17 [label="gps_height <= 1138.0\ngini = 0.54\nsamples = 10\nvalue = [3, 1, 6]\nclass = 2", fillcolor="#c9aaf4"] ;
16 -> 17 ;
18 [label="gini = 0.0\nsamples = 3\nvalue = [0, 0, 3]\nclass = 2", fillcolor="#8139e5"] ;
17 -> 18 ;
19 [label="population <= 621.0\ngini = 0.612\nsamples = 7\nvalue = [3, 1, 3]\nclass = 0", fillcolor="#ffffff"] ;
17 -> 19 ;
20 [label="longitude <= 31.215\ngini = 0.56\nsamples = 5\nvalue = [1, 1, 3]\nclass = 2", fillcolor="#c09cf2"] ;
19 -> 20 ;
21 [label="gps_height <= 1657.0\ngini = 0.375\nsamples = 4\nvalue = [1, 0, 3]\nclass = 2", fillcolor="#ab7bee"] ;
20 -> 21 ;
22 [label="gini = 0.0\nsamples = 3\nvalue = [0, 0, 3]\nclass = 2", fillcolor="#8139e5"] ;
21 -> 22 ;
23 [label="gini = 0.0\nsamples = 1\nvalue = [1, 0, 0]\nclass = 0", fillcolor="#e58139"] ;
21 -> 23 ;
24 [label="gini = 0.0\nsamples = 1\nvalue = [0, 1, 0]\nclass = 1", fillcolor="#39e581"] ;
20 -> 24 ;
25 [label="gini = 0.0\nsamples = 2\nvalue = [2, 0, 0]\nclass = 0", fillcolor="#e58139"] ;
19 -> 25 ;
26 [label="gini = 0.0\nsamples = 1\nvalue = [0, 1, 0]\nclass = 1", fillcolor="#39e581"] ;
16 -> 26 ;
27 [label="gini = 0.0\nsamples = 5\nvalue = [5, 0, 0]\nclass = 0", fillcolor="#e58139"] ;
13 -> 27 ;
28 [label="extraction_type_india mark ii <= 0.5\ngini = 0.447\nsamples = 73\nvalue = [21, 2, 50]\nclass = 2", fillcolor="#b991f0"] ;
12 -> 28 ;
29 [label="latitude <= -9.163\ngini = 0.383\nsamples = 60\nvalue = [14, 1, 45]\nclass = 2", fillcolor="#aa7aed"] ;
28 -> 29 ;
30 [label="gini = 0.0\nsamples = 10\nvalue = [0, 0, 10]\nclass = 2", fillcolor="#8139e5"] ;
29 -> 30 ;
31 [label="latitude <= -8.437\ngini = 0.431\nsamples = 50\nvalue = [14, 1, 35]\nclass = 2", fillcolor="#b68cf0"] ;
29 -> 31 ;
32 [label="longitude <= 32.312\ngini = 0.511\nsamples = 29\nvalue = [11, 1, 17]\nclass = 2", fillcolor="#d5bdf6"] ;
31 -> 32 ;
33 [label="gini = 0.0\nsamples = 2\nvalue = [2, 0, 0]\nclass = 0", fillcolor="#e58139"] ;
32 -> 33 ;
34 [label="longitude <= 32.359\ngini = 0.491\nsamples = 27\nvalue = [9, 1, 17]\nclass = 2", fillcolor="#c7a7f3"] ;
32 -> 34 ;
35 [label="gini = 0.0\nsamples = 4\nvalue = [0, 0, 4]\nclass = 2", fillcolor="#8139e5"] ;
34 -> 35 ;
36 [label="payment_type_on failure <= 0.5\ngini = 0.526\nsamples = 23\nvalue = [9, 1, 13]\nclass = 2", fillcolor="#dbc6f8"] ;
34 -> 36 ;
37 [label="gini = 0.0\nsamples = 2\nvalue = [2, 0, 0]\nclass = 0", fillcolor="#e58139"] ;
36 -> 37 ;
38 [label="quantity_group_enough <= 0.5\ngini = 0.503\nsamples = 21\nvalue = [7, 1, 13]\nclass = 2", fillcolor="#c9aaf4"] ;
36 -> 38 ;
39 [label="gini = 0.0\nsamples = 3\nvalue = [0, 0, 3]\nclass = 2", fillcolor="#8139e5"] ;
38 -> 39 ;
40 [label="latitude <= -8.964\ngini = 0.537\nsamples = 18\nvalue = [7, 1, 10]\nclass = 2", fillcolor="#ddc9f8"] ;
38 -> 40 ;
41 [label="longitude <= 32.511\ngini = 0.459\nsamples = 14\nvalue = [5, 0, 9]\nclass = 2", fillcolor="#c7a7f3"] ;
40 -> 41 ;
42 [label="gini = 0.0\nsamples = 1\nvalue = [1, 0, 0]\nclass = 0", fillcolor="#e58139"] ;
41 -> 42 ;
43 [label="longitude <= 32.517\ngini = 0.426\nsamples = 13\nvalue = [4, 0, 9]\nclass = 2", fillcolor="#b991f1"] ;
41 -> 43 ;
44 [label="gini = 0.0\nsamples = 3\nvalue = [0, 0, 3]\nclass = 2", fillcolor="#8139e5"] ;
43 -> 44 ;
45 [label="latitude <= -9.16\ngini = 0.48\nsamples = 10\nvalue = [4, 0, 6]\nclass = 2", fillcolor="#d5bdf6"] ;
43 -> 45 ;
46 [label="gini = 0.0\nsamples = 1\nvalue = [1, 0, 0]\nclass = 0", fillcolor="#e58139"] ;
45 -> 46 ;
47 [label="latitude <= -9.156\ngini = 0.444\nsamples = 9\nvalue = [3, 0, 6]\nclass = 2", fillcolor="#c09cf2"] ;
45 -> 47 ;
48 [label="gini = 0.0\nsamples = 2\nvalue = [0, 0, 2]\nclass = 2", fillcolor="#8139e5"] ;
47 -> 48 ;
49 [label="latitude <= -8.97\ngini = 0.49\nsamples = 7\nvalue = [3, 0, 4]\nclass = 2", fillcolor="#e0cef8"] ;
47 -> 49 ;
50 [label="longitude <= 32.518\ngini = 0.48\nsamples = 5\nvalue = [3, 0, 2]\nclass = 0", fillcolor="#f6d5bd"] ;
49 -> 50 ;
51 [label="gini = 0.0\nsamples = 1\nvalue = [0, 0, 1]\nclass = 2", fillcolor="#8139e5"] ;
50 -> 51 ;
52 [label="longitude <= 32.615\ngini = 0.375\nsamples = 4\nvalue = [3, 0, 1]\nclass = 0", fillcolor="#eeab7b"] ;
50 -> 52 ;
53 [label="gini = 0.0\nsamples = 3\nvalue = [3, 0, 0]\nclass = 0", fillcolor="#e58139"] ;
52 -> 53 ;
54 [label="gini = 0.0\nsamples = 1\nvalue = [0, 0, 1]\nclass = 2", fillcolor="#8139e5"] ;
52 -> 54 ;
55 [label="gini = 0.0\nsamples = 2\nvalue = [0, 0, 2]\nclass = 2", fillcolor="#8139e5"] ;
49 -> 55 ;
56 [label="extraction_type_group_swn 80 <= 0.5\ngini = 0.625\nsamples = 4\nvalue = [2, 1, 1]\nclass = 0", fillcolor="#f6d5bd"] ;
40 -> 56 ;
57 [label="gini = 0.0\nsamples = 1\nvalue = [0, 0, 1]\nclass = 2", fillcolor="#8139e5"] ;
56 -> 57 ;
58 [label="longitude <= 32.573\ngini = 0.444\nsamples = 3\nvalue = [2, 1, 0]\nclass = 0", fillcolor="#f2c09c"] ;
56 -> 58 ;
59 [label="gini = 0.0\nsamples = 2\nvalue = [2, 0, 0]\nclass = 0", fillcolor="#e58139"] ;
58 -> 59 ;
60 [label="gini = 0.0\nsamples = 1\nvalue = [0, 1, 0]\nclass = 1", fillcolor="#39e581"] ;
58 -> 60 ;
61 [label="payment_other <= 0.5\ngini = 0.245\nsamples = 21\nvalue = [3, 0, 18]\nclass = 2", fillcolor="#965ae9"] ;
31 -> 61 ;
62 [label="latitude <= -8.182\ngini = 0.18\nsamples = 20\nvalue = [2, 0, 18]\nclass = 2", fillcolor="#8f4fe8"] ;
61 -> 62 ;
63 [label="longitude <= 32.295\ngini = 0.32\nsamples = 10\nvalue = [2, 0, 8]\nclass = 2", fillcolor="#a06aec"] ;
62 -> 63 ;
64 [label="gini = 0.0\nsamples = 2\nvalue = [2, 0, 0]\nclass = 0", fillcolor="#e58139"] ;
63 -> 64 ;
65 [label="gini = 0.0\nsamples = 8\nvalue = [0, 0, 8]\nclass = 2", fillcolor="#8139e5"] ;
63 -> 65 ;
66 [label="gini = 0.0\nsamples = 10\nvalue = [0, 0, 10]\nclass = 2", fillcolor="#8139e5"] ;
62 -> 66 ;
67 [label="gini = 0.0\nsamples = 1\nvalue = [1, 0, 0]\nclass = 0", fillcolor="#e58139"] ;
61 -> 67 ;
68 [label="longitude <= 32.423\ngini = 0.556\nsamples = 13\nvalue = [7, 1, 5]\nclass = 0", fillcolor="#f8e0ce"] ;
28 -> 68 ;
69 [label="latitude <= -8.155\ngini = 0.571\nsamples = 7\nvalue = [2, 1, 4]\nclass = 2", fillcolor="#cdb0f5"] ;
68 -> 69 ;
70 [label="gini = 0.0\nsamples = 4\nvalue = [0, 0, 4]\nclass = 2", fillcolor="#8139e5"] ;
69 -> 70 ;
71 [label="quantity_insufficient <= 0.5\ngini = 0.444\nsamples = 3\nvalue = [2, 1, 0]\nclass = 0", fillcolor="#f2c09c"] ;
69 -> 71 ;
72 [label="gini = 0.0\nsamples = 2\nvalue = [2, 0, 0]\nclass = 0", fillcolor="#e58139"] ;
71 -> 72 ;
73 [label="gini = 0.0\nsamples = 1\nvalue = [0, 1, 0]\nclass = 1", fillcolor="#39e581"] ;
71 -> 73 ;
74 [label="longitude <= 32.612\ngini = 0.278\nsamples = 6\nvalue = [5, 0, 1]\nclass = 0", fillcolor="#ea9a61"] ;
68 -> 74 ;
75 [label="gini = 0.0\nsamples = 5\nvalue = [5, 0, 0]\nclass = 0", fillcolor="#e58139"] ;
74 -> 75 ;
76 [label="gini = 0.0\nsamples = 1\nvalue = [0, 0, 1]\nclass = 2", fillcolor="#8139e5"] ;
74 -> 76 ;
77 [label="gini = 0.0\nsamples = 14\nvalue = [0, 0, 14]\nclass = 2", fillcolor="#8139e5"] ;
11 -> 77 ;
78 [label="latitude <= -8.821\ngini = 0.589\nsamples = 357\nvalue = [167, 38, 152]\nclass = 0", fillcolor="#fdf6f1"] ;
10 -> 78 ;
79 [label="quantity_group_seasonal <= 0.5\ngini = 0.593\nsamples = 339\nvalue = [152, 38, 149]\nclass = 0", fillcolor="#fffdfc"] ;
78 -> 79 ;
80 [label="extraction_type_group_swn 80 <= 0.5\ngini = 0.597\nsamples = 294\nvalue = [140, 36, 118]\nclass = 0", fillcolor="#fcefe6"] ;
79 -> 80 ;
81 [label="latitude <= -8.956\ngini = 0.598\nsamples = 282\nvalue = [138, 36, 108]\nclass = 0", fillcolor="#fbe9dd"] ;
80 -> 81 ;
82 [label="longitude <= 33.05\ngini = 0.6\nsamples = 256\nvalue = [129, 36, 91]\nclass = 0", fillcolor="#f9e2d1"] ;
81 -> 82 ;
83 [label="extraction_type_nira/tanira <= 0.5\ngini = 0.587\nsamples = 184\nvalue = [86, 19, 79]\nclass = 0", fillcolor="#fdf7f2"] ;
82 -> 83 ;
84 [label="latitude <= -9.214\ngini = 0.29\nsamples = 18\nvalue = [15, 1, 2]\nclass = 0", fillcolor="#ea995e"] ;
83 -> 84 ;
85 [label="gini = 0.0\nsamples = 1\nvalue = [0, 1, 0]\nclass = 1", fillcolor="#39e581"] ;
84 -> 85 ;
86 [label="latitude <= -9.097\ngini = 0.208\nsamples = 17\nvalue = [15, 0, 2]\nclass = 0", fillcolor="#e89253"] ;
84 -> 86 ;
87 [label="source_type_river/lake <= 0.5\ngini = 0.5\nsamples = 2\nvalue = [1, 0, 1]\nclass = 0", fillcolor="#ffffff"] ;
86 -> 87 ;
88 [label="gini = 0.0\nsamples = 1\nvalue = [1, 0, 0]\nclass = 0", fillcolor="#e58139"] ;
87 -> 88 ;
89 [label="gini = 0.0\nsamples = 1\nvalue = [0, 0, 1]\nclass = 2", fillcolor="#8139e5"] ;
87 -> 89 ;
90 [label="longitude <= 32.967\ngini = 0.124\nsamples = 15\nvalue = [14, 0, 1]\nclass = 0", fillcolor="#e78a47"] ;
86 -> 90 ;
91 [label="gini = 0.0\nsamples = 12\nvalue = [12, 0, 0]\nclass = 0", fillcolor="#e58139"] ;
90 -> 91 ;
92 [label="longitude <= 32.968\ngini = 0.444\nsamples = 3\nvalue = [2, 0, 1]\nclass = 0", fillcolor="#f2c09c"] ;
90 -> 92 ;
93 [label="gini = 0.0\nsamples = 1\nvalue = [0, 0, 1]\nclass = 2", fillcolor="#8139e5"] ;
92 -> 93 ;
94 [label="gini = 0.0\nsamples = 2\nvalue = [2, 0, 0]\nclass = 0", fillcolor="#e58139"] ;
92 -> 94 ;
95 [label="latitude <= -9.071\ngini = 0.59\nsamples = 166\nvalue = [71, 18, 77]\nclass = 2", fillcolor="#f7f2fd"] ;
83 -> 95 ;
96 [label="longitude <= 32.87\ngini = 0.591\nsamples = 101\nvalue = [52, 13, 36]\nclass = 0", fillcolor="#f9e0ce"] ;
95 -> 96 ;
97 [label="longitude <= 32.812\ngini = 0.614\nsamples = 62\nvalue = [32, 13, 17]\nclass = 0", fillcolor="#f6d5bd"] ;
96 -> 97 ;
98 [label="longitude <= 32.767\ngini = 0.551\nsamples = 30\nvalue = [16, 2, 12]\nclass = 0", fillcolor="#f9e3d3"] ;
97 -> 98 ;
99 [label="latitude <= -9.098\ngini = 0.475\nsamples = 18\nvalue = [12, 1, 5]\nclass = 0", fillcolor="#f1bb94"] ;
98 -> 99 ;
100 [label="longitude <= 32.76\ngini = 0.612\nsamples = 7\nvalue = [3, 1, 3]\nclass = 0", fillcolor="#ffffff"] ;
99 -> 100 ;
101 [label="longitude <= 32.69\ngini = 0.375\nsamples = 4\nvalue = [1, 0, 3]\nclass = 2", fillcolor="#ab7bee"] ;
100 -> 101 ;
102 [label="gini = 0.0\nsamples = 1\nvalue = [1, 0, 0]\nclass = 0", fillcolor="#e58139"] ;
101 -> 102 ;
103 [label="gini = 0.0\nsamples = 3\nvalue = [0, 0, 3]\nclass = 2", fillcolor="#8139e5"] ;
101 -> 103 ;
104 [label="latitude <= -9.107\ngini = 0.444\nsamples = 3\nvalue = [2, 1, 0]\nclass = 0", fillcolor="#f2c09c"] ;
100 -> 104 ;
105 [label="gini = 0.0\nsamples = 1\nvalue = [1, 0, 0]\nclass = 0", fillcolor="#e58139"] ;
104 -> 105 ;
106 [label="longitude <= 32.762\ngini = 0.5\nsamples = 2\nvalue = [1, 1, 0]\nclass = 0", fillcolor="#ffffff"] ;
104 -> 106 ;
107 [label="gini = 0.0\nsamples = 1\nvalue = [1, 0, 0]\nclass = 0", fillcolor="#e58139"] ;
106 -> 107 ;
108 [label="gini = 0.0\nsamples = 1\nvalue = [0, 1, 0]\nclass = 1", fillcolor="#39e581"] ;
106 -> 108 ;
109 [label="latitude <= -9.093\ngini = 0.298\nsamples = 11\nvalue = [9, 0, 2]\nclass = 0", fillcolor="#eb9d65"] ;
99 -> 109 ;
110 [label="gini = 0.0\nsamples = 5\nvalue = [5, 0, 0]\nclass = 0", fillcolor="#e58139"] ;
109 -> 110 ;
111 [label="latitude <= -9.088\ngini = 0.444\nsamples = 6\nvalue = [4, 0, 2]\nclass = 0", fillcolor="#f2c09c"] ;
109 -> 111 ;
112 [label="gini = 0.0\nsamples = 2\nvalue = [0, 0, 2]\nclass = 2", fillcolor="#8139e5"] ;
111 -> 112 ;
113 [label="gini = 0.0\nsamples = 4\nvalue = [4, 0, 0]\nclass = 0", fillcolor="#e58139"] ;
111 -> 113 ;
114 [label="longitude <= 32.797\ngini = 0.542\nsamples = 12\nvalue = [4, 1, 7]\nclass = 2", fillcolor="#d0b5f5"] ;
98 -> 114 ;
115 [label="latitude <= -9.112\ngini = 0.245\nsamples = 7\nvalue = [0, 1, 6]\nclass = 2", fillcolor="#965ae9"] ;
114 -> 115 ;
116 [label="longitude <= 32.791\ngini = 0.5\nsamples = 2\nvalue = [0, 1, 1]\nclass = 1", fillcolor="#ffffff"] ;
115 -> 116 ;
117 [label="gini = 0.0\nsamples = 1\nvalue = [0, 1, 0]\nclass = 1", fillcolor="#39e581"] ;
116 -> 117 ;
118 [label="gini = 0.0\nsamples = 1\nvalue = [0, 0, 1]\nclass = 2", fillcolor="#8139e5"] ;
116 -> 118 ;
119 [label="gini = 0.0\nsamples = 5\nvalue = [0, 0, 5]\nclass = 2", fillcolor="#8139e5"] ;
115 -> 119 ;
120 [label="longitude <= 32.809\ngini = 0.32\nsamples = 5\nvalue = [4, 0, 1]\nclass = 0", fillcolor="#eca06a"] ;
114 -> 120 ;
121 [label="gini = 0.0\nsamples = 4\nvalue = [4, 0, 0]\nclass = 0", fillcolor="#e58139"] ;
120 -> 121 ;
122 [label="gini = 0.0\nsamples = 1\nvalue = [0, 0, 1]\nclass = 2", fillcolor="#8139e5"] ;
120 -> 122 ;
123 [label="longitude <= 32.817\ngini = 0.607\nsamples = 32\nvalue = [16, 11, 5]\nclass = 0", fillcolor="#f9e1d0"] ;
97 -> 123 ;
124 [label="gini = 0.0\nsamples = 2\nvalue = [0, 2, 0]\nclass = 1", fillcolor="#39e581"] ;
123 -> 124 ;
125 [label="latitude <= -9.1\ngini = 0.598\nsamples = 30\nvalue = [16, 9, 5]\nclass = 0", fillcolor="#f6d5bd"] ;
123 -> 125 ;
126 [label="latitude <= -9.11\ngini = 0.643\nsamples = 23\nvalue = [10, 8, 5]\nclass = 0", fillcolor="#fceee5"] ;
125 -> 126 ;
127 [label="latitude <= -9.256\ngini = 0.609\nsamples = 19\nvalue = [10, 4, 5]\nclass = 0", fillcolor="#f6d2b8"] ;
126 -> 127 ;
128 [label="gini = 0.0\nsamples = 1\nvalue = [0, 1, 0]\nclass = 1", fillcolor="#39e581"] ;
127 -> 128 ;
129 [label="longitude <= 32.823\ngini = 0.586\nsamples = 18\nvalue = [10, 3, 5]\nclass = 0", fillcolor="#f5cfb3"] ;
127 -> 129 ;
130 [label="longitude <= 32.82\ngini = 0.5\nsamples = 4\nvalue = [2, 2, 0]\nclass = 0", fillcolor="#ffffff"] ;
129 -> 130 ;
131 [label="gini = 0.0\nsamples = 2\nvalue = [2, 0, 0]\nclass = 0", fillcolor="#e58139"] ;
130 -> 131 ;
132 [label="gini = 0.0\nsamples = 2\nvalue = [0, 2, 0]\nclass = 1", fillcolor="#39e581"] ;
130 -> 132 ;
133 [label="longitude <= 32.852\ngini = 0.541\nsamples = 14\nvalue = [8, 1, 5]\nclass = 0", fillcolor="#f6d5bd"] ;
129 -> 133 ;
134 [label="longitude <= 32.833\ngini = 0.42\nsamples = 10\nvalue = [7, 0, 3]\nclass = 0", fillcolor="#f0b78e"] ;
133 -> 134 ;
135 [label="latitude <= -9.236\ngini = 0.5\nsamples = 6\nvalue = [3, 0, 3]\nclass = 0", fillcolor="#ffffff"] ;
134 -> 135 ;
136 [label="gini = 0.0\nsamples = 2\nvalue = [0, 0, 2]\nclass = 2", fillcolor="#8139e5"] ;
135 -> 136 ;
137 [label="longitude <= 32.828\ngini = 0.375\nsamples = 4\nvalue = [3, 0, 1]\nclass = 0", fillcolor="#eeab7b"] ;
135 -> 137 ;
138 [label="longitude <= 32.827\ngini = 0.5\nsamples = 2\nvalue = [1, 0, 1]\nclass = 0", fillcolor="#ffffff"] ;
137 -> 138 ;
139 [label="gini = 0.0\nsamples = 1\nvalue = [1, 0, 0]\nclass = 0", fillcolor="#e58139"] ;
138 -> 139 ;
140 [label="gini = 0.0\nsamples = 1\nvalue = [0, 0, 1]\nclass = 2", fillcolor="#8139e5"] ;
138 -> 140 ;
141 [label="gini = 0.0\nsamples = 2\nvalue = [2, 0, 0]\nclass = 0", fillcolor="#e58139"] ;
137 -> 141 ;
142 [label="gini = 0.0\nsamples = 4\nvalue = [4, 0, 0]\nclass = 0", fillcolor="#e58139"] ;
134 -> 142 ;
143 [label="longitude <= 32.866\ngini = 0.625\nsamples = 4\nvalue = [1, 1, 2]\nclass = 2", fillcolor="#d5bdf6"] ;
133 -> 143 ;
144 [label="quantity_group_enough <= 0.5\ngini = 0.444\nsamples = 3\nvalue = [0, 1, 2]\nclass = 2", fillcolor="#c09cf2"] ;
143 -> 144 ;
145 [label="gini = 0.0\nsamples = 1\nvalue = [0, 0, 1]\nclass = 2", fillcolor="#8139e5"] ;
144 -> 145 ;
146 [label="longitude <= 32.855\ngini = 0.5\nsamples = 2\nvalue = [0, 1, 1]\nclass = 1", fillcolor="#ffffff"] ;
144 -> 146 ;
147 [label="gini = 0.0\nsamples = 1\nvalue = [0, 0, 1]\nclass = 2", fillcolor="#8139e5"] ;
146 -> 147 ;
148 [label="gini = 0.0\nsamples = 1\nvalue = [0, 1, 0]\nclass = 1", fillcolor="#39e581"] ;
146 -> 148 ;
149 [label="gini = 0.0\nsamples = 1\nvalue = [1, 0, 0]\nclass = 0", fillcolor="#e58139"] ;
143 -> 149 ;
150 [label="gini = 0.0\nsamples = 4\nvalue = [0, 4, 0]\nclass = 1", fillcolor="#39e581"] ;
126 -> 150 ;
151 [label="longitude <= 32.866\ngini = 0.245\nsamples = 7\nvalue = [6, 1, 0]\nclass = 0", fillcolor="#e9965a"] ;
125 -> 151 ;
152 [label="gini = 0.0\nsamples = 6\nvalue = [6, 0, 0]\nclass = 0", fillcolor="#e58139"] ;
151 -> 152 ;
153 [label="gini = 0.0\nsamples = 1\nvalue = [0, 1, 0]\nclass = 1", fillcolor="#39e581"] ;
151 -> 153 ;
154 [label="latitude <= -9.15\ngini = 0.5\nsamples = 39\nvalue = [20, 0, 19]\nclass = 0", fillcolor="#fef9f5"] ;
96 -> 154 ;
155 [label="latitude <= -9.177\ngini = 0.444\nsamples = 24\nvalue = [16, 0, 8]\nclass = 0", fillcolor="#f2c09c"] ;
154 -> 155 ;
156 [label="longitude <= 32.873\ngini = 0.298\nsamples = 11\nvalue = [9, 0, 2]\nclass = 0", fillcolor="#eb9d65"] ;
155 -> 156 ;
157 [label="gini = 0.0\nsamples = 1\nvalue = [0, 0, 1]\nclass = 2", fillcolor="#8139e5"] ;
156 -> 157 ;
158 [label="longitude <= 32.916\ngini = 0.18\nsamples = 10\nvalue = [9, 0, 1]\nclass = 0", fillcolor="#e88f4f"] ;
156 -> 158 ;
159 [label="latitude <= -9.222\ngini = 0.444\nsamples = 3\nvalue = [2, 0, 1]\nclass = 0", fillcolor="#f2c09c"] ;
158 -> 159 ;
160 [label="gini = 0.0\nsamples = 2\nvalue = [2, 0, 0]\nclass = 0", fillcolor="#e58139"] ;
159 -> 160 ;
161 [label="gini = 0.0\nsamples = 1\nvalue = [0, 0, 1]\nclass = 2", fillcolor="#8139e5"] ;
159 -> 161 ;
162 [label="gini = 0.0\nsamples = 7\nvalue = [7, 0, 0]\nclass = 0", fillcolor="#e58139"] ;
158 -> 162 ;
163 [label="latitude <= -9.16\ngini = 0.497\nsamples = 13\nvalue = [7, 0, 6]\nclass = 0", fillcolor="#fbede3"] ;
155 -> 163 ;
164 [label="latitude <= -9.168\ngini = 0.32\nsamples = 5\nvalue = [1, 0, 4]\nclass = 2", fillcolor="#a06aec"] ;
163 -> 164 ;
165 [label="longitude <= 32.934\ngini = 0.5\nsamples = 2\nvalue = [1, 0, 1]\nclass = 0", fillcolor="#ffffff"] ;
164 -> 165 ;
166 [label="gini = 0.0\nsamples = 1\nvalue = [1, 0, 0]\nclass = 0", fillcolor="#e58139"] ;
165 -> 166 ;
167 [label="gini = 0.0\nsamples = 1\nvalue = [0, 0, 1]\nclass = 2", fillcolor="#8139e5"] ;
165 -> 167 ;
168 [label="gini = 0.0\nsamples = 3\nvalue = [0, 0, 3]\nclass = 2", fillcolor="#8139e5"] ;
164 -> 168 ;
169 [label="longitude <= 32.943\ngini = 0.375\nsamples = 8\nvalue = [6, 0, 2]\nclass = 0", fillcolor="#eeab7b"] ;
163 -> 169 ;
170 [label="longitude <= 32.929\ngini = 0.444\nsamples = 6\nvalue = [4, 0, 2]\nclass = 0", fillcolor="#f2c09c"] ;
169 -> 170 ;
171 [label="longitude <= 32.897\ngini = 0.32\nsamples = 5\nvalue = [4, 0, 1]\nclass = 0", fillcolor="#eca06a"] ;
170 -> 171 ;
172 [label="longitude <= 32.895\ngini = 0.5\nsamples = 2\nvalue = [1, 0, 1]\nclass = 0", fillcolor="#ffffff"] ;
171 -> 172 ;
173 [label="gini = 0.0\nsamples = 1\nvalue = [1, 0, 0]\nclass = 0", fillcolor="#e58139"] ;
172 -> 173 ;
174 [label="gini = 0.0\nsamples = 1\nvalue = [0, 0, 1]\nclass = 2", fillcolor="#8139e5"] ;
172 -> 174 ;
175 [label="gini = 0.0\nsamples = 3\nvalue = [3, 0, 0]\nclass = 0", fillcolor="#e58139"] ;
171 -> 175 ;
176 [label="gini = 0.0\nsamples = 1\nvalue = [0, 0, 1]\nclass = 2", fillcolor="#8139e5"] ;
170 -> 176 ;
177 [label="gini = 0.0\nsamples = 2\nvalue = [2, 0, 0]\nclass = 0", fillcolor="#e58139"] ;
169 -> 177 ;
178 [label="latitude <= -9.12\ngini = 0.391\nsamples = 15\nvalue = [4, 0, 11]\nclass = 2", fillcolor="#af81ee"] ;
154 -> 178 ;
179 [label="longitude <= 32.897\ngini = 0.219\nsamples = 8\nvalue = [1, 0, 7]\nclass = 2", fillcolor="#9355e9"] ;
178 -> 179 ;
180 [label="gini = 0.0\nsamples = 6\nvalue = [0, 0, 6]\nclass = 2", fillcolor="#8139e5"] ;
179 -> 180 ;
181 [label="quantity_group_enough <= 0.5\ngini = 0.5\nsamples = 2\nvalue = [1, 0, 1]\nclass = 0", fillcolor="#ffffff"] ;
179 -> 181 ;
182 [label="gini = 0.0\nsamples = 1\nvalue = [0, 0, 1]\nclass = 2", fillcolor="#8139e5"] ;
181 -> 182 ;
183 [label="gini = 0.0\nsamples = 1\nvalue = [1, 0, 0]\nclass = 0", fillcolor="#e58139"] ;
181 -> 183 ;
184 [label="latitude <= -9.096\ngini = 0.49\nsamples = 7\nvalue = [3, 0, 4]\nclass = 2", fillcolor="#e0cef8"] ;
178 -> 184 ;
185 [label="longitude <= 33.045\ngini = 0.375\nsamples = 4\nvalue = [3, 0, 1]\nclass = 0", fillcolor="#eeab7b"] ;
184 -> 185 ;
186 [label="gini = 0.0\nsamples = 3\nvalue = [3, 0, 0]\nclass = 0", fillcolor="#e58139"] ;
185 -> 186 ;
187 [label="gini = 0.0\nsamples = 1\nvalue = [0, 0, 1]\nclass = 2", fillcolor="#8139e5"] ;
185 -> 187 ;
188 [label="gini = 0.0\nsamples = 3\nvalue = [0, 0, 3]\nclass = 2", fillcolor="#8139e5"] ;
184 -> 188 ;
189 [label="quantity_enough <= 0.5\ngini = 0.511\nsamples = 65\nvalue = [19, 5, 41]\nclass = 2", fillcolor="#c3a0f3"] ;
95 -> 189 ;
190 [label="longitude <= 33.026\ngini = 0.364\nsamples = 36\nvalue = [6, 2, 28]\nclass = 2", fillcolor="#a36eec"] ;
189 -> 190 ;
191 [label="latitude <= -9.061\ngini = 0.275\nsamples = 32\nvalue = [3, 2, 27]\nclass = 2", fillcolor="#975be9"] ;
190 -> 191 ;
192 [label="latitude <= -9.067\ngini = 0.444\nsamples = 6\nvalue = [0, 2, 4]\nclass = 2", fillcolor="#c09cf2"] ;
191 -> 192 ;
193 [label="gini = 0.0\nsamples = 3\nvalue = [0, 0, 3]\nclass = 2", fillcolor="#8139e5"] ;
192 -> 193 ;
194 [label="longitude <= 32.836\ngini = 0.444\nsamples = 3\nvalue = [0, 2, 1]\nclass = 1", fillcolor="#9cf2c0"] ;
192 -> 194 ;
195 [label="gini = 0.0\nsamples = 1\nvalue = [0, 1, 0]\nclass = 1", fillcolor="#39e581"] ;
194 -> 195 ;
196 [label="latitude <= -9.061\ngini = 0.5\nsamples = 2\nvalue = [0, 1, 1]\nclass = 1", fillcolor="#ffffff"] ;
194 -> 196 ;
197 [label="gini = 0.0\nsamples = 1\nvalue = [0, 0, 1]\nclass = 2", fillcolor="#8139e5"] ;
196 -> 197 ;
198 [label="gini = 0.0\nsamples = 1\nvalue = [0, 1, 0]\nclass = 1", fillcolor="#39e581"] ;
196 -> 198 ;
199 [label="longitude <= 32.814\ngini = 0.204\nsamples = 26\nvalue = [3, 0, 23]\nclass = 2", fillcolor="#9153e8"] ;
191 -> 199 ;
200 [label="longitude <= 32.779\ngini = 0.444\nsamples = 6\nvalue = [2, 0, 4]\nclass = 2", fillcolor="#c09cf2"] ;
199 -> 200 ;
201 [label="gini = 0.0\nsamples = 3\nvalue = [0, 0, 3]\nclass = 2", fillcolor="#8139e5"] ;
200 -> 201 ;
202 [label="latitude <= -8.995\ngini = 0.444\nsamples = 3\nvalue = [2, 0, 1]\nclass = 0", fillcolor="#f2c09c"] ;
200 -> 202 ;
203 [label="gini = 0.0\nsamples = 1\nvalue = [0, 0, 1]\nclass = 2", fillcolor="#8139e5"] ;
202 -> 203 ;
204 [label="gini = 0.0\nsamples = 2\nvalue = [2, 0, 0]\nclass = 0", fillcolor="#e58139"] ;
202 -> 204 ;
205 [label="longitude <= 32.876\ngini = 0.095\nsamples = 20\nvalue = [1, 0, 19]\nclass = 2", fillcolor="#8843e6"] ;
199 -> 205 ;
206 [label="gini = 0.0\nsamples = 15\nvalue = [0, 0, 15]\nclass = 2", fillcolor="#8139e5"] ;
205 -> 206 ;
207 [label="longitude <= 32.877\ngini = 0.32\nsamples = 5\nvalue = [1, 0, 4]\nclass = 2", fillcolor="#a06aec"] ;
205 -> 207 ;
208 [label="gini = 0.0\nsamples = 1\nvalue = [1, 0, 0]\nclass = 0", fillcolor="#e58139"] ;
207 -> 208 ;
209 [label="gini = 0.0\nsamples = 4\nvalue = [0, 0, 4]\nclass = 2", fillcolor="#8139e5"] ;
207 -> 209 ;
210 [label="latitude <= -9.001\ngini = 0.375\nsamples = 4\nvalue = [3, 0, 1]\nclass = 0", fillcolor="#eeab7b"] ;
190 -> 210 ;
211 [label="gini = 0.0\nsamples = 3\nvalue = [3, 0, 0]\nclass = 0", fillcolor="#e58139"] ;
210 -> 211 ;
212 [label="gini = 0.0\nsamples = 1\nvalue = [0, 0, 1]\nclass = 2", fillcolor="#8139e5"] ;
210 -> 212 ;
213 [label="longitude <= 32.941\ngini = 0.587\nsamples = 29\nvalue = [13, 3, 13]\nclass = 0", fillcolor="#ffffff"] ;
189 -> 213 ;
214 [label="latitude <= -8.997\ngini = 0.555\nsamples = 20\nvalue = [12, 3, 5]\nclass = 0", fillcolor="#f3c4a3"] ;
213 -> 214 ;
215 [label="latitude <= -9.008\ngini = 0.56\nsamples = 5\nvalue = [1, 3, 1]\nclass = 1", fillcolor="#9cf2c0"] ;
214 -> 215 ;
216 [label="latitude <= -9.036\ngini = 0.5\nsamples = 2\nvalue = [1, 0, 1]\nclass = 0", fillcolor="#ffffff"] ;
215 -> 216 ;
217 [label="gini = 0.0\nsamples = 1\nvalue = [1, 0, 0]\nclass = 0", fillcolor="#e58139"] ;
216 -> 217 ;
218 [label="gini = 0.0\nsamples = 1\nvalue = [0, 0, 1]\nclass = 2", fillcolor="#8139e5"] ;
216 -> 218 ;
219 [label="gini = 0.0\nsamples = 3\nvalue = [0, 3, 0]\nclass = 1", fillcolor="#39e581"] ;
215 -> 219 ;
220 [label="longitude <= 32.775\ngini = 0.391\nsamples = 15\nvalue = [11, 0, 4]\nclass = 0", fillcolor="#eeaf81"] ;
214 -> 220 ;
221 [label="gini = 0.0\nsamples = 2\nvalue = [0, 0, 2]\nclass = 2", fillcolor="#8139e5"] ;
220 -> 221 ;
222 [label="latitude <= -8.986\ngini = 0.26\nsamples = 13\nvalue = [11, 0, 2]\nclass = 0", fillcolor="#ea985d"] ;
220 -> 222 ;
223 [label="gini = 0.0\nsamples = 7\nvalue = [7, 0, 0]\nclass = 0", fillcolor="#e58139"] ;
222 -> 223 ;
224 [label="latitude <= -8.983\ngini = 0.444\nsamples = 6\nvalue = [4, 0, 2]\nclass = 0", fillcolor="#f2c09c"] ;
222 -> 224 ;
225 [label="latitude <= -8.984\ngini = 0.444\nsamples = 3\nvalue = [1, 0, 2]\nclass = 2", fillcolor="#c09cf2"] ;
224 -> 225 ;
226 [label="gini = 0.0\nsamples = 1\nvalue = [0, 0, 1]\nclass = 2", fillcolor="#8139e5"] ;
225 -> 226 ;
227 [label="latitude <= -8.983\ngini = 0.5\nsamples = 2\nvalue = [1, 0, 1]\nclass = 0", fillcolor="#ffffff"] ;
225 -> 227 ;
228 [label="gini = 0.0\nsamples = 1\nvalue = [1, 0, 0]\nclass = 0", fillcolor="#e58139"] ;
227 -> 228 ;
229 [label="gini = 0.0\nsamples = 1\nvalue = [0, 0, 1]\nclass = 2", fillcolor="#8139e5"] ;
227 -> 229 ;
230 [label="gini = 0.0\nsamples = 3\nvalue = [3, 0, 0]\nclass = 0", fillcolor="#e58139"] ;
224 -> 230 ;
231 [label="longitude <= 33.013\ngini = 0.198\nsamples = 9\nvalue = [1, 0, 8]\nclass = 2", fillcolor="#9152e8"] ;
213 -> 231 ;
232 [label="gini = 0.0\nsamples = 5\nvalue = [0, 0, 5]\nclass = 2", fillcolor="#8139e5"] ;
231 -> 232 ;
233 [label="longitude <= 33.019\ngini = 0.375\nsamples = 4\nvalue = [1, 0, 3]\nclass = 2", fillcolor="#ab7bee"] ;
231 -> 233 ;
234 [label="gini = 0.0\nsamples = 1\nvalue = [1, 0, 0]\nclass = 0", fillcolor="#e58139"] ;
233 -> 234 ;
235 [label="gini = 0.0\nsamples = 3\nvalue = [0, 0, 3]\nclass = 2", fillcolor="#8139e5"] ;
233 -> 235 ;
236 [label="latitude <= -9.115\ngini = 0.56\nsamples = 72\nvalue = [43, 17, 12]\nclass = 0", fillcolor="#f3c3a1"] ;
82 -> 236 ;
237 [label="gini = 0.0\nsamples = 3\nvalue = [0, 0, 3]\nclass = 2", fillcolor="#8139e5"] ;
236 -> 237 ;
238 [label="latitude <= -9.01\ngini = 0.534\nsamples = 69\nvalue = [43, 17, 9]\nclass = 0", fillcolor="#f2c09c"] ;
236 -> 238 ;
239 [label="latitude <= -9.107\ngini = 0.34\nsamples = 35\nvalue = [28, 4, 3]\nclass = 0", fillcolor="#eb9d66"] ;
238 -> 239 ;
240 [label="gini = 0.0\nsamples = 1\nvalue = [0, 1, 0]\nclass = 1", fillcolor="#39e581"] ;
239 -> 240 ;
241 [label="longitude <= 33.164\ngini = 0.306\nsamples = 34\nvalue = [28, 3, 3]\nclass = 0", fillcolor="#ea995f"] ;
239 -> 241 ;
242 [label="latitude <= -9.058\ngini = 0.275\nsamples = 32\nvalue = [27, 2, 3]\nclass = 0", fillcolor="#e9975b"] ;
241 -> 242 ;
243 [label="latitude <= -9.084\ngini = 0.408\nsamples = 7\nvalue = [5, 0, 2]\nclass = 0", fillcolor="#efb388"] ;
242 -> 243 ;
244 [label="gini = 0.0\nsamples = 4\nvalue = [4, 0, 0]\nclass = 0", fillcolor="#e58139"] ;
243 -> 244 ;
245 [label="longitude <= 33.093\ngini = 0.444\nsamples = 3\nvalue = [1, 0, 2]\nclass = 2", fillcolor="#c09cf2"] ;
243 -> 245 ;
246 [label="gini = 0.0\nsamples = 1\nvalue = [0, 0, 1]\nclass = 2", fillcolor="#8139e5"] ;
245 -> 246 ;
247 [label="longitude <= 33.112\ngini = 0.5\nsamples = 2\nvalue = [1, 0, 1]\nclass = 0", fillcolor="#ffffff"] ;
245 -> 247 ;
248 [label="gini = 0.0\nsamples = 1\nvalue = [1, 0, 0]\nclass = 0", fillcolor="#e58139"] ;
247 -> 248 ;
249 [label="gini = 0.0\nsamples = 1\nvalue = [0, 0, 1]\nclass = 2", fillcolor="#8139e5"] ;
247 -> 249 ;
250 [label="longitude <= 33.077\ngini = 0.218\nsamples = 25\nvalue = [22, 2, 1]\nclass = 0", fillcolor="#e89153"] ;
242 -> 250 ;
251 [label="longitude <= 33.07\ngini = 0.56\nsamples = 5\nvalue = [3, 1, 1]\nclass = 0", fillcolor="#f2c09c"] ;
250 -> 251 ;
252 [label="longitude <= 33.062\ngini = 0.375\nsamples = 4\nvalue = [3, 1, 0]\nclass = 0", fillcolor="#eeab7b"] ;
251 -> 252 ;
253 [label="latitude <= -9.025\ngini = 0.5\nsamples = 2\nvalue = [1, 1, 0]\nclass = 0", fillcolor="#ffffff"] ;
252 -> 253 ;
254 [label="gini = 0.0\nsamples = 1\nvalue = [1, 0, 0]\nclass = 0", fillcolor="#e58139"] ;
253 -> 254 ;
255 [label="gini = 0.0\nsamples = 1\nvalue = [0, 1, 0]\nclass = 1", fillcolor="#39e581"] ;
253 -> 255 ;
256 [label="gini = 0.0\nsamples = 2\nvalue = [2, 0, 0]\nclass = 0", fillcolor="#e58139"] ;
252 -> 256 ;
257 [label="gini = 0.0\nsamples = 1\nvalue = [0, 0, 1]\nclass = 2", fillcolor="#8139e5"] ;
251 -> 257 ;
258 [label="quantity_enough <= 0.5\ngini = 0.095\nsamples = 20\nvalue = [19, 1, 0]\nclass = 0", fillcolor="#e68843"] ;
250 -> 258 ;
259 [label="gini = 0.0\nsamples = 12\nvalue = [12, 0, 0]\nclass = 0", fillcolor="#e58139"] ;
258 -> 259 ;
260 [label="longitude <= 33.105\ngini = 0.219\nsamples = 8\nvalue = [7, 1, 0]\nclass = 0", fillcolor="#e99355"] ;
258 -> 260 ;
261 [label="gini = 0.0\nsamples = 6\nvalue = [6, 0, 0]\nclass = 0", fillcolor="#e58139"] ;
260 -> 261 ;
262 [label="longitude <= 33.111\ngini = 0.5\nsamples = 2\nvalue = [1, 1, 0]\nclass = 0", fillcolor="#ffffff"] ;
260 -> 262 ;
263 [label="gini = 0.0\nsamples = 1\nvalue = [0, 1, 0]\nclass = 1", fillcolor="#39e581"] ;
262 -> 263 ;
264 [label="gini = 0.0\nsamples = 1\nvalue = [1, 0, 0]\nclass = 0", fillcolor="#e58139"] ;
262 -> 264 ;
265 [label="longitude <= 33.169\ngini = 0.5\nsamples = 2\nvalue = [1, 1, 0]\nclass = 0", fillcolor="#ffffff"] ;
241 -> 265 ;
266 [label="gini = 0.0\nsamples = 1\nvalue = [0, 1, 0]\nclass = 1", fillcolor="#39e581"] ;
265 -> 266 ;
267 [label="gini = 0.0\nsamples = 1\nvalue = [1, 0, 0]\nclass = 0", fillcolor="#e58139"] ;
265 -> 267 ;
268 [label="quantity_enough <= 0.5\ngini = 0.628\nsamples = 34\nvalue = [15, 13, 6]\nclass = 0", fillcolor="#fdf3ec"] ;
238 -> 268 ;
269 [label="longitude <= 33.21\ngini = 0.642\nsamples = 18\nvalue = [8, 4, 6]\nclass = 0", fillcolor="#fbeade"] ;
268 -> 269 ;
270 [label="longitude <= 33.2\ngini = 0.556\nsamples = 13\nvalue = [7, 1, 5]\nclass = 0", fillcolor="#f8e0ce"] ;
269 -> 270 ;
271 [label="longitude <= 33.053\ngini = 0.594\nsamples = 8\nvalue = [3, 1, 4]\nclass = 2", fillcolor="#e6d7fa"] ;
270 -> 271 ;
272 [label="gini = 0.0\nsamples = 1\nvalue = [1, 0, 0]\nclass = 0", fillcolor="#e58139"] ;
271 -> 272 ;
273 [label="latitude <= -9.001\ngini = 0.571\nsamples = 7\nvalue = [2, 1, 4]\nclass = 2", fillcolor="#cdb0f5"] ;
271 -> 273 ;
274 [label="gini = 0.0\nsamples = 1\nvalue = [1, 0, 0]\nclass = 0", fillcolor="#e58139"] ;
273 -> 274 ;
275 [label="longitude <= 33.064\ngini = 0.5\nsamples = 6\nvalue = [1, 1, 4]\nclass = 2", fillcolor="#b388ef"] ;
273 -> 275 ;
276 [label="latitude <= -8.983\ngini = 0.667\nsamples = 3\nvalue = [1, 1, 1]\nclass = 0", fillcolor="#ffffff"] ;
275 -> 276 ;
277 [label="gini = 0.0\nsamples = 1\nvalue = [0, 0, 1]\nclass = 2", fillcolor="#8139e5"] ;
276 -> 277 ;
278 [label="longitude <= 33.061\ngini = 0.5\nsamples = 2\nvalue = [1, 1, 0]\nclass = 0", fillcolor="#ffffff"] ;
276 -> 278 ;
279 [label="gini = 0.0\nsamples = 1\nvalue = [1, 0, 0]\nclass = 0", fillcolor="#e58139"] ;
278 -> 279 ;
280 [label="gini = 0.0\nsamples = 1\nvalue = [0, 1, 0]\nclass = 1", fillcolor="#39e581"] ;
278 -> 280 ;
281 [label="gini = 0.0\nsamples = 3\nvalue = [0, 0, 3]\nclass = 2", fillcolor="#8139e5"] ;
275 -> 281 ;
282 [label="longitude <= 33.208\ngini = 0.32\nsamples = 5\nvalue = [4, 0, 1]\nclass = 0", fillcolor="#eca06a"] ;
270 -> 282 ;
283 [label="gini = 0.0\nsamples = 4\nvalue = [4, 0, 0]\nclass = 0", fillcolor="#e58139"] ;
282 -> 283 ;
284 [label="gini = 0.0\nsamples = 1\nvalue = [0, 0, 1]\nclass = 2", fillcolor="#8139e5"] ;
282 -> 284 ;
285 [label="latitude <= -8.973\ngini = 0.56\nsamples = 5\nvalue = [1, 3, 1]\nclass = 1", fillcolor="#9cf2c0"] ;
269 -> 285 ;
286 [label="gini = 0.0\nsamples = 3\nvalue = [0, 3, 0]\nclass = 1", fillcolor="#39e581"] ;
285 -> 286 ;
287 [label="latitude <= -8.968\ngini = 0.5\nsamples = 2\nvalue = [1, 0, 1]\nclass = 0", fillcolor="#ffffff"] ;
285 -> 287 ;
288 [label="gini = 0.0\nsamples = 1\nvalue = [1, 0, 0]\nclass = 0", fillcolor="#e58139"] ;
287 -> 288 ;
289 [label="gini = 0.0\nsamples = 1\nvalue = [0, 0, 1]\nclass = 2", fillcolor="#8139e5"] ;
287 -> 289 ;
290 [label="latitude <= -8.986\ngini = 0.492\nsamples = 16\nvalue = [7, 9, 0]\nclass = 1", fillcolor="#d3f9e3"] ;
268 -> 290 ;
291 [label="gini = 0.0\nsamples = 4\nvalue = [0, 4, 0]\nclass = 1", fillcolor="#39e581"] ;
290 -> 291 ;
292 [label="longitude <= 33.11\ngini = 0.486\nsamples = 12\nvalue = [7, 5, 0]\nclass = 0", fillcolor="#f8dbc6"] ;
290 -> 292 ;
293 [label="latitude <= -8.968\ngini = 0.5\nsamples = 10\nvalue = [5, 5, 0]\nclass = 0", fillcolor="#ffffff"] ;
292 -> 293 ;
294 [label="gini = 0.0\nsamples = 2\nvalue = [2, 0, 0]\nclass = 0", fillcolor="#e58139"] ;
293 -> 294 ;
295 [label="latitude <= -8.964\ngini = 0.469\nsamples = 8\nvalue = [3, 5, 0]\nclass = 1", fillcolor="#b0f5cd"] ;
293 -> 295 ;
296 [label="latitude <= -8.967\ngini = 0.32\nsamples = 5\nvalue = [1, 4, 0]\nclass = 1", fillcolor="#6aeca0"] ;
295 -> 296 ;
297 [label="longitude <= 33.102\ngini = 0.5\nsamples = 2\nvalue = [1, 1, 0]\nclass = 0", fillcolor="#ffffff"] ;
296 -> 297 ;
298 [label="gini = 0.0\nsamples = 1\nvalue = [0, 1, 0]\nclass = 1", fillcolor="#39e581"] ;
297 -> 298 ;
299 [label="gini = 0.0\nsamples = 1\nvalue = [1, 0, 0]\nclass = 0", fillcolor="#e58139"] ;
297 -> 299 ;
300 [label="gini = 0.0\nsamples = 3\nvalue = [0, 3, 0]\nclass = 1", fillcolor="#39e581"] ;
296 -> 300 ;
301 [label="source_shallow well <= 0.5\ngini = 0.444\nsamples = 3\nvalue = [2, 1, 0]\nclass = 0", fillcolor="#f2c09c"] ;
295 -> 301 ;
302 [label="gini = 0.0\nsamples = 2\nvalue = [2, 0, 0]\nclass = 0", fillcolor="#e58139"] ;
301 -> 302 ;
303 [label="gini = 0.0\nsamples = 1\nvalue = [0, 1, 0]\nclass = 1", fillcolor="#39e581"] ;
301 -> 303 ;
304 [label="gini = 0.0\nsamples = 2\nvalue = [2, 0, 0]\nclass = 0", fillcolor="#e58139"] ;
292 -> 304 ;
305 [label="latitude <= -8.935\ngini = 0.453\nsamples = 26\nvalue = [9, 0, 17]\nclass = 2", fillcolor="#c4a2f3"] ;
81 -> 305 ;
306 [label="longitude <= 33.182\ngini = 0.198\nsamples = 18\nvalue = [2, 0, 16]\nclass = 2", fillcolor="#9152e8"] ;
305 -> 306 ;
307 [label="longitude <= 33.167\ngini = 0.375\nsamples = 8\nvalue = [2, 0, 6]\nclass = 2", fillcolor="#ab7bee"] ;
306 -> 307 ;
308 [label="gini = 0.0\nsamples = 6\nvalue = [0, 0, 6]\nclass = 2", fillcolor="#8139e5"] ;
307 -> 308 ;
309 [label="gini = 0.0\nsamples = 2\nvalue = [2, 0, 0]\nclass = 0", fillcolor="#e58139"] ;
307 -> 309 ;
310 [label="gini = 0.0\nsamples = 10\nvalue = [0, 0, 10]\nclass = 2", fillcolor="#8139e5"] ;
306 -> 310 ;
311 [label="source_shallow well <= 0.5\ngini = 0.219\nsamples = 8\nvalue = [7, 0, 1]\nclass = 0", fillcolor="#e99355"] ;
305 -> 311 ;
312 [label="gini = 0.0\nsamples = 1\nvalue = [0, 0, 1]\nclass = 2", fillcolor="#8139e5"] ;
311 -> 312 ;
313 [label="gini = 0.0\nsamples = 7\nvalue = [7, 0, 0]\nclass = 0", fillcolor="#e58139"] ;
311 -> 313 ;
314 [label="water_quality_milky <= 0.5\ngini = 0.278\nsamples = 12\nvalue = [2, 0, 10]\nclass = 2", fillcolor="#9a61ea"] ;
80 -> 314 ;
315 [label="longitude <= 32.931\ngini = 0.165\nsamples = 11\nvalue = [1, 0, 10]\nclass = 2", fillcolor="#8e4de8"] ;
314 -> 315 ;
316 [label="gini = 0.0\nsamples = 9\nvalue = [0, 0, 9]\nclass = 2", fillcolor="#8139e5"] ;
315 -> 316 ;
317 [label="source_shallow well <= 0.5\ngini = 0.5\nsamples = 2\nvalue = [1, 0, 1]\nclass = 0", fillcolor="#ffffff"] ;
315 -> 317 ;
318 [label="gini = 0.0\nsamples = 1\nvalue = [1, 0, 0]\nclass = 0", fillcolor="#e58139"] ;
317 -> 318 ;
319 [label="gini = 0.0\nsamples = 1\nvalue = [0, 0, 1]\nclass = 2", fillcolor="#8139e5"] ;
317 -> 319 ;
320 [label="gini = 0.0\nsamples = 1\nvalue = [1, 0, 0]\nclass = 0", fillcolor="#e58139"] ;
314 -> 320 ;
321 [label="longitude <= 32.83\ngini = 0.452\nsamples = 45\nvalue = [12, 2, 31]\nclass = 2", fillcolor="#b68df0"] ;
79 -> 321 ;
322 [label="longitude <= 32.81\ngini = 0.5\nsamples = 2\nvalue = [1, 1, 0]\nclass = 0", fillcolor="#ffffff"] ;
321 -> 322 ;
323 [label="gini = 0.0\nsamples = 1\nvalue = [0, 1, 0]\nclass = 1", fillcolor="#39e581"] ;
322 -> 323 ;
324 [label="gini = 0.0\nsamples = 1\nvalue = [1, 0, 0]\nclass = 0", fillcolor="#e58139"] ;
322 -> 324 ;
325 [label="longitude <= 33.185\ngini = 0.414\nsamples = 43\nvalue = [11, 1, 31]\nclass = 2", fillcolor="#b083ef"] ;
321 -> 325 ;
326 [label="longitude <= 33.15\ngini = 0.373\nsamples = 38\nvalue = [8, 1, 29]\nclass = 2", fillcolor="#a774ed"] ;
325 -> 326 ;
327 [label="longitude <= 32.919\ngini = 0.417\nsamples = 27\nvalue = [8, 0, 19]\nclass = 2", fillcolor="#b68cf0"] ;
326 -> 327 ;
328 [label="gini = 0.0\nsamples = 5\nvalue = [0, 0, 5]\nclass = 2", fillcolor="#8139e5"] ;
327 -> 328 ;
329 [label="longitude <= 32.945\ngini = 0.463\nsamples = 22\nvalue = [8, 0, 14]\nclass = 2", fillcolor="#c9aaf4"] ;
327 -> 329 ;
330 [label="gini = 0.0\nsamples = 2\nvalue = [2, 0, 0]\nclass = 0", fillcolor="#e58139"] ;
329 -> 330 ;
331 [label="latitude <= -8.886\ngini = 0.42\nsamples = 20\nvalue = [6, 0, 14]\nclass = 2", fillcolor="#b78ef0"] ;
329 -> 331 ;
332 [label="latitude <= -8.925\ngini = 0.48\nsamples = 15\nvalue = [6, 0, 9]\nclass = 2", fillcolor="#d5bdf6"] ;
331 -> 332 ;
333 [label="longitude <= 33.146\ngini = 0.397\nsamples = 11\nvalue = [3, 0, 8]\nclass = 2", fillcolor="#b083ef"] ;
332 -> 333 ;
334 [label="latitude <= -9.045\ngini = 0.32\nsamples = 10\nvalue = [2, 0, 8]\nclass = 2", fillcolor="#a06aec"] ;
333 -> 334 ;
335 [label="latitude <= -9.059\ngini = 0.444\nsamples = 6\nvalue = [2, 0, 4]\nclass = 2", fillcolor="#c09cf2"] ;
334 -> 335 ;
336 [label="longitude <= 33.13\ngini = 0.32\nsamples = 5\nvalue = [1, 0, 4]\nclass = 2", fillcolor="#a06aec"] ;
335 -> 336 ;
337 [label="latitude <= -9.076\ngini = 0.5\nsamples = 2\nvalue = [1, 0, 1]\nclass = 0", fillcolor="#ffffff"] ;
336 -> 337 ;
338 [label="gini = 0.0\nsamples = 1\nvalue = [0, 0, 1]\nclass = 2", fillcolor="#8139e5"] ;
337 -> 338 ;
339 [label="gini = 0.0\nsamples = 1\nvalue = [1, 0, 0]\nclass = 0", fillcolor="#e58139"] ;
337 -> 339 ;
340 [label="gini = 0.0\nsamples = 3\nvalue = [0, 0, 3]\nclass = 2", fillcolor="#8139e5"] ;
336 -> 340 ;
341 [label="gini = 0.0\nsamples = 1\nvalue = [1, 0, 0]\nclass = 0", fillcolor="#e58139"] ;
335 -> 341 ;
342 [label="gini = 0.0\nsamples = 4\nvalue = [0, 0, 4]\nclass = 2", fillcolor="#8139e5"] ;
334 -> 342 ;
343 [label="gini = 0.0\nsamples = 1\nvalue = [1, 0, 0]\nclass = 0", fillcolor="#e58139"] ;
333 -> 343 ;
344 [label="latitude <= -8.902\ngini = 0.375\nsamples = 4\nvalue = [3, 0, 1]\nclass = 0", fillcolor="#eeab7b"] ;
332 -> 344 ;
345 [label="gini = 0.0\nsamples = 2\nvalue = [2, 0, 0]\nclass = 0", fillcolor="#e58139"] ;
344 -> 345 ;
346 [label="longitude <= 33.052\ngini = 0.5\nsamples = 2\nvalue = [1, 0, 1]\nclass = 0", fillcolor="#ffffff"] ;
344 -> 346 ;
347 [label="gini = 0.0\nsamples = 1\nvalue = [0, 0, 1]\nclass = 2", fillcolor="#8139e5"] ;
346 -> 347 ;
348 [label="gini = 0.0\nsamples = 1\nvalue = [1, 0, 0]\nclass = 0", fillcolor="#e58139"] ;
346 -> 348 ;
349 [label="gini = 0.0\nsamples = 5\nvalue = [0, 0, 5]\nclass = 2", fillcolor="#8139e5"] ;
331 -> 349 ;
350 [label="longitude <= 33.175\ngini = 0.165\nsamples = 11\nvalue = [0, 1, 10]\nclass = 2", fillcolor="#8e4de8"] ;
326 -> 350 ;
351 [label="gini = 0.0\nsamples = 8\nvalue = [0, 0, 8]\nclass = 2", fillcolor="#8139e5"] ;
350 -> 351 ;
352 [label="longitude <= 33.179\ngini = 0.444\nsamples = 3\nvalue = [0, 1, 2]\nclass = 2", fillcolor="#c09cf2"] ;
350 -> 352 ;
353 [label="gini = 0.0\nsamples = 1\nvalue = [0, 1, 0]\nclass = 1", fillcolor="#39e581"] ;
352 -> 353 ;
354 [label="gini = 0.0\nsamples = 2\nvalue = [0, 0, 2]\nclass = 2", fillcolor="#8139e5"] ;
352 -> 354 ;
355 [label="latitude <= -9.067\ngini = 0.48\nsamples = 5\nvalue = [3, 0, 2]\nclass = 0", fillcolor="#f6d5bd"] ;
325 -> 355 ;
356 [label="longitude <= 33.202\ngini = 0.375\nsamples = 4\nvalue = [3, 0, 1]\nclass = 0", fillcolor="#eeab7b"] ;
355 -> 356 ;
357 [label="longitude <= 33.195\ngini = 0.5\nsamples = 2\nvalue = [1, 0, 1]\nclass = 0", fillcolor="#ffffff"] ;
356 -> 357 ;
358 [label="gini = 0.0\nsamples = 1\nvalue = [1, 0, 0]\nclass = 0", fillcolor="#e58139"] ;
357 -> 358 ;
359 [label="gini = 0.0\nsamples = 1\nvalue = [0, 0, 1]\nclass = 2", fillcolor="#8139e5"] ;
357 -> 359 ;
360 [label="gini = 0.0\nsamples = 2\nvalue = [2, 0, 0]\nclass = 0", fillcolor="#e58139"] ;
356 -> 360 ;
361 [label="gini = 0.0\nsamples = 1\nvalue = [0, 0, 1]\nclass = 2", fillcolor="#8139e5"] ;
355 -> 361 ;
362 [label="quantity_seasonal <= 0.5\ngini = 0.278\nsamples = 18\nvalue = [15, 0, 3]\nclass = 0", fillcolor="#ea9a61"] ;
78 -> 362 ;
363 [label="gini = 0.0\nsamples = 7\nvalue = [7, 0, 0]\nclass = 0", fillcolor="#e58139"] ;
362 -> 363 ;
364 [label="longitude <= 32.867\ngini = 0.397\nsamples = 11\nvalue = [8, 0, 3]\nclass = 0", fillcolor="#efb083"] ;
362 -> 364 ;
365 [label="longitude <= 32.838\ngini = 0.444\nsamples = 3\nvalue = [1, 0, 2]\nclass = 2", fillcolor="#c09cf2"] ;
364 -> 365 ;
366 [label="gini = 0.0\nsamples = 1\nvalue = [1, 0, 0]\nclass = 0", fillcolor="#e58139"] ;
365 -> 366 ;
367 [label="gini = 0.0\nsamples = 2\nvalue = [0, 0, 2]\nclass = 2", fillcolor="#8139e5"] ;
365 -> 367 ;
368 [label="longitude <= 32.925\ngini = 0.219\nsamples = 8\nvalue = [7, 0, 1]\nclass = 0", fillcolor="#e99355"] ;
364 -> 368 ;
369 [label="gini = 0.0\nsamples = 7\nvalue = [7, 0, 0]\nclass = 0", fillcolor="#e58139"] ;
368 -> 369 ;
370 [label="gini = 0.0\nsamples = 1\nvalue = [0, 0, 1]\nclass = 2", fillcolor="#8139e5"] ;
368 -> 370 ;
371 [label="longitude <= 33.013\ngini = 0.621\nsamples = 69\nvalue = [17, 35, 17]\nclass = 1", fillcolor="#baf6d3"] ;
9 -> 371 ;
372 [label="longitude <= 33.01\ngini = 0.544\nsamples = 26\nvalue = [16, 4, 6]\nclass = 0", fillcolor="#f2c09c"] ;
371 -> 372 ;
373 [label="extraction_type_class_motorpump <= 0.5\ngini = 0.346\nsamples = 18\nvalue = [14, 4, 0]\nclass = 0", fillcolor="#eca572"] ;
372 -> 373 ;
374 [label="latitude <= -8.368\ngini = 0.124\nsamples = 15\nvalue = [14, 1, 0]\nclass = 0", fillcolor="#e78a47"] ;
373 -> 374 ;
375 [label="gini = 0.0\nsamples = 11\nvalue = [11, 0, 0]\nclass = 0", fillcolor="#e58139"] ;
374 -> 375 ;
376 [label="latitude <= -8.209\ngini = 0.375\nsamples = 4\nvalue = [3, 1, 0]\nclass = 0", fillcolor="#eeab7b"] ;
374 -> 376 ;
377 [label="gini = 0.0\nsamples = 1\nvalue = [0, 1, 0]\nclass = 1", fillcolor="#39e581"] ;
376 -> 377 ;
378 [label="gini = 0.0\nsamples = 3\nvalue = [3, 0, 0]\nclass = 0", fillcolor="#e58139"] ;
376 -> 378 ;
379 [label="gini = 0.0\nsamples = 3\nvalue = [0, 3, 0]\nclass = 1", fillcolor="#39e581"] ;
373 -> 379 ;
380 [label="latitude <= -8.443\ngini = 0.375\nsamples = 8\nvalue = [2, 0, 6]\nclass = 2", fillcolor="#ab7bee"] ;
372 -> 380 ;
381 [label="gini = 0.0\nsamples = 1\nvalue = [1, 0, 0]\nclass = 0", fillcolor="#e58139"] ;
380 -> 381 ;
382 [label="longitude <= 33.012\ngini = 0.245\nsamples = 7\nvalue = [1, 0, 6]\nclass = 2", fillcolor="#965ae9"] ;
380 -> 382 ;
383 [label="gini = 0.0\nsamples = 6\nvalue = [0, 0, 6]\nclass = 2", fillcolor="#8139e5"] ;
382 -> 383 ;
384 [label="gini = 0.0\nsamples = 1\nvalue = [1, 0, 0]\nclass = 0", fillcolor="#e58139"] ;
382 -> 384 ;
385 [label="latitude <= -8.622\ngini = 0.414\nsamples = 43\nvalue = [1, 31, 11]\nclass = 1", fillcolor="#83efb0"] ;
371 -> 385 ;
386 [label="longitude <= 33.15\ngini = 0.569\nsamples = 12\nvalue = [1, 5, 6]\nclass = 2", fillcolor="#ede3fb"] ;
385 -> 386 ;
387 [label="longitude <= 33.146\ngini = 0.245\nsamples = 7\nvalue = [0, 1, 6]\nclass = 2", fillcolor="#965ae9"] ;
386 -> 387 ;
388 [label="gini = 0.0\nsamples = 4\nvalue = [0, 0, 4]\nclass = 2", fillcolor="#8139e5"] ;
387 -> 388 ;
389 [label="longitude <= 33.147\ngini = 0.444\nsamples = 3\nvalue = [0, 1, 2]\nclass = 2", fillcolor="#c09cf2"] ;
387 -> 389 ;
390 [label="gini = 0.0\nsamples = 1\nvalue = [0, 1, 0]\nclass = 1", fillcolor="#39e581"] ;
389 -> 390 ;
391 [label="gini = 0.0\nsamples = 2\nvalue = [0, 0, 2]\nclass = 2", fillcolor="#8139e5"] ;
389 -> 391 ;
392 [label="payment_pay monthly <= 0.5\ngini = 0.32\nsamples = 5\nvalue = [1, 4, 0]\nclass = 1", fillcolor="#6aeca0"] ;
386 -> 392 ;
393 [label="gini = 0.0\nsamples = 1\nvalue = [1, 0, 0]\nclass = 0", fillcolor="#e58139"] ;
392 -> 393 ;
394 [label="gini = 0.0\nsamples = 4\nvalue = [0, 4, 0]\nclass = 1", fillcolor="#39e581"] ;
392 -> 394 ;
395 [label="longitude <= 33.036\ngini = 0.271\nsamples = 31\nvalue = [0, 26, 5]\nclass = 1", fillcolor="#5fea99"] ;
385 -> 395 ;
396 [label="longitude <= 33.013\ngini = 0.375\nsamples = 4\nvalue = [0, 1, 3]\nclass = 2", fillcolor="#ab7bee"] ;
395 -> 396 ;
397 [label="gini = 0.0\nsamples = 1\nvalue = [0, 1, 0]\nclass = 1", fillcolor="#39e581"] ;
396 -> 397 ;
398 [label="gini = 0.0\nsamples = 3\nvalue = [0, 0, 3]\nclass = 2", fillcolor="#8139e5"] ;
396 -> 398 ;
399 [label="latitude <= -8.414\ngini = 0.137\nsamples = 27\nvalue = [0, 25, 2]\nclass = 1", fillcolor="#49e78b"] ;
395 -> 399 ;
400 [label="latitude <= -8.583\ngini = 0.077\nsamples = 25\nvalue = [0, 24, 1]\nclass = 1", fillcolor="#41e686"] ;
399 -> 400 ;
401 [label="latitude <= -8.586\ngini = 0.198\nsamples = 9\nvalue = [0, 8, 1]\nclass = 1", fillcolor="#52e891"] ;
400 -> 401 ;
402 [label="gini = 0.0\nsamples = 8\nvalue = [0, 8, 0]\nclass = 1", fillcolor="#39e581"] ;
401 -> 402 ;
403 [label="gini = 0.0\nsamples = 1\nvalue = [0, 0, 1]\nclass = 2", fillcolor="#8139e5"] ;
401 -> 403 ;
404 [label="gini = 0.0\nsamples = 16\nvalue = [0, 16, 0]\nclass = 1", fillcolor="#39e581"] ;
400 -> 404 ;
405 [label="longitude <= 33.164\ngini = 0.5\nsamples = 2\nvalue = [0, 1, 1]\nclass = 1", fillcolor="#ffffff"] ;
399 -> 405 ;
406 [label="gini = 0.0\nsamples = 1\nvalue = [0, 0, 1]\nclass = 2", fillcolor="#8139e5"] ;
405 -> 406 ;
407 [label="gini = 0.0\nsamples = 1\nvalue = [0, 1, 0]\nclass = 1", fillcolor="#39e581"] ;
405 -> 407 ;
408 [label="water_quality_unknown <= 0.5\ngini = 0.455\nsamples = 1295\nvalue = [917, 154, 224]\nclass = 0", fillcolor="#eead7f"] ;
8 -> 408 ;
409 [label="lga_Chunya <= 0.5\ngini = 0.435\nsamples = 1254\nvalue = [910, 153, 191]\nclass = 0", fillcolor="#edaa79"] ;
408 -> 409 ;
410 [label="longitude <= 36.013\ngini = 0.399\nsamples = 1182\nvalue = [892, 118, 172]\nclass = 0", fillcolor="#eca572"] ;
409 -> 410 ;
411 [label="longitude <= 34.169\ngini = 0.337\nsamples = 854\nvalue = [685, 91, 78]\nclass = 0", fillcolor="#eb9d65"] ;
410 -> 411 ;
412 [label="longitude <= 33.637\ngini = 0.457\nsamples = 355\nvalue = [251, 49, 55]\nclass = 0", fillcolor="#eead7e"] ;
411 -> 412 ;
413 [label="latitude <= -9.067\ngini = 0.26\nsamples = 183\nvalue = [156, 7, 20]\nclass = 0", fillcolor="#e9965a"] ;
412 -> 413 ;
414 [label="gini = 0.0\nsamples = 2\nvalue = [0, 0, 2]\nclass = 2", fillcolor="#8139e5"] ;
413 -> 414 ;
415 [label="quantity_seasonal <= 0.5\ngini = 0.246\nsamples = 181\nvalue = [156, 7, 18]\nclass = 0", fillcolor="#e99457"] ;
413 -> 415 ;
416 [label="longitude <= 33.26\ngini = 0.219\nsamples = 166\nvalue = [146, 7, 13]\nclass = 0", fillcolor="#e89153"] ;
415 -> 416 ;
417 [label="gini = 0.0\nsamples = 29\nvalue = [29, 0, 0]\nclass = 0", fillcolor="#e58139"] ;
416 -> 417 ;
418 [label="longitude <= 33.262\ngini = 0.259\nsamples = 137\nvalue = [117, 7, 13]\nclass = 0", fillcolor="#e99559"] ;
416 -> 418 ;
419 [label="gini = 0.0\nsamples = 1\nvalue = [0, 0, 1]\nclass = 2", fillcolor="#8139e5"] ;
418 -> 419 ;
420 [label="latitude <= -8.952\ngini = 0.249\nsamples = 136\nvalue = [117, 7, 12]\nclass = 0", fillcolor="#e99457"] ;
418 -> 420 ;
421 [label="latitude <= -9.013\ngini = 0.135\nsamples = 55\nvalue = [51, 0, 4]\nclass = 0", fillcolor="#e78b49"] ;
420 -> 421 ;
422 [label="longitude <= 33.3\ngini = 0.5\nsamples = 2\nvalue = [1, 0, 1]\nclass = 0", fillcolor="#ffffff"] ;
421 -> 422 ;
423 [label="gini = 0.0\nsamples = 1\nvalue = [0, 0, 1]\nclass = 2", fillcolor="#8139e5"] ;
422 -> 423 ;
424 [label="gini = 0.0\nsamples = 1\nvalue = [1, 0, 0]\nclass = 0", fillcolor="#e58139"] ;
422 -> 424 ;
425 [label="latitude <= -8.997\ngini = 0.107\nsamples = 53\nvalue = [50, 0, 3]\nclass = 0", fillcolor="#e78945"] ;
421 -> 425 ;
426 [label="latitude <= -8.998\ngini = 0.219\nsamples = 16\nvalue = [14, 0, 2]\nclass = 0", fillcolor="#e99355"] ;
425 -> 426 ;
427 [label="latitude <= -9.004\ngini = 0.124\nsamples = 15\nvalue = [14, 0, 1]\nclass = 0", fillcolor="#e78a47"] ;
426 -> 427 ;
428 [label="gini = 0.0\nsamples = 10\nvalue = [10, 0, 0]\nclass = 0", fillcolor="#e58139"] ;
427 -> 428 ;
429 [label="latitude <= -9.002\ngini = 0.32\nsamples = 5\nvalue = [4, 0, 1]\nclass = 0", fillcolor="#eca06a"] ;
427 -> 429 ;
430 [label="gini = 0.0\nsamples = 1\nvalue = [0, 0, 1]\nclass = 2", fillcolor="#8139e5"] ;
429 -> 430 ;
431 [label="gini = 0.0\nsamples = 4\nvalue = [4, 0, 0]\nclass = 0", fillcolor="#e58139"] ;
429 -> 431 ;
432 [label="gini = 0.0\nsamples = 1\nvalue = [0, 0, 1]\nclass = 2", fillcolor="#8139e5"] ;
426 -> 432 ;
433 [label="longitude <= 33.309\ngini = 0.053\nsamples = 37\nvalue = [36, 0, 1]\nclass = 0", fillcolor="#e6843e"] ;
425 -> 433 ;
434 [label="gini = 0.0\nsamples = 27\nvalue = [27, 0, 0]\nclass = 0", fillcolor="#e58139"] ;
433 -> 434 ;
435 [label="longitude <= 33.311\ngini = 0.18\nsamples = 10\nvalue = [9, 0, 1]\nclass = 0", fillcolor="#e88f4f"] ;
433 -> 435 ;
436 [label="gini = 0.0\nsamples = 1\nvalue = [0, 0, 1]\nclass = 2", fillcolor="#8139e5"] ;
435 -> 436 ;
437 [label="gini = 0.0\nsamples = 9\nvalue = [9, 0, 0]\nclass = 0", fillcolor="#e58139"] ;
435 -> 437 ;
438 [label="longitude <= 33.272\ngini = 0.319\nsamples = 81\nvalue = [66, 7, 8]\nclass = 0", fillcolor="#ea9b62"] ;
420 -> 438 ;
439 [label="latitude <= -8.902\ngini = 0.444\nsamples = 3\nvalue = [1, 0, 2]\nclass = 2", fillcolor="#c09cf2"] ;
438 -> 439 ;
440 [label="gini = 0.0\nsamples = 1\nvalue = [0, 0, 1]\nclass = 2", fillcolor="#8139e5"] ;
439 -> 440 ;
441 [label="latitude <= -8.854\ngini = 0.5\nsamples = 2\nvalue = [1, 0, 1]\nclass = 0", fillcolor="#ffffff"] ;
439 -> 441 ;
442 [label="gini = 0.0\nsamples = 1\nvalue = [1, 0, 0]\nclass = 0", fillcolor="#e58139"] ;
441 -> 442 ;
443 [label="gini = 0.0\nsamples = 1\nvalue = [0, 0, 1]\nclass = 2", fillcolor="#8139e5"] ;
441 -> 443 ;
444 [label="longitude <= 33.359\ngini = 0.292\nsamples = 78\nvalue = [65, 7, 6]\nclass = 0", fillcolor="#ea985d"] ;
438 -> 444 ;
445 [label="longitude <= 33.353\ngini = 0.461\nsamples = 16\nvalue = [11, 4, 1]\nclass = 0", fillcolor="#f0b68c"] ;
444 -> 445 ;
446 [label="latitude <= -8.887\ngini = 0.272\nsamples = 13\nvalue = [11, 1, 1]\nclass = 0", fillcolor="#e9965a"] ;
445 -> 446 ;
447 [label="latitude <= -8.892\ngini = 0.444\nsamples = 3\nvalue = [2, 0, 1]\nclass = 0", fillcolor="#f2c09c"] ;
446 -> 447 ;
448 [label="gini = 0.0\nsamples = 2\nvalue = [2, 0, 0]\nclass = 0", fillcolor="#e58139"] ;
447 -> 448 ;
449 [label="gini = 0.0\nsamples = 1\nvalue = [0, 0, 1]\nclass = 2", fillcolor="#8139e5"] ;
447 -> 449 ;
450 [label="latitude <= -8.881\ngini = 0.18\nsamples = 10\nvalue = [9, 1, 0]\nclass = 0", fillcolor="#e88f4f"] ;
446 -> 450 ;
451 [label="longitude <= 33.333\ngini = 0.375\nsamples = 4\nvalue = [3, 1, 0]\nclass = 0", fillcolor="#eeab7b"] ;
450 -> 451 ;
452 [label="gini = 0.0\nsamples = 1\nvalue = [0, 1, 0]\nclass = 1", fillcolor="#39e581"] ;
451 -> 452 ;
453 [label="gini = 0.0\nsamples = 3\nvalue = [3, 0, 0]\nclass = 0", fillcolor="#e58139"] ;
451 -> 453 ;
454 [label="gini = 0.0\nsamples = 6\nvalue = [6, 0, 0]\nclass = 0", fillcolor="#e58139"] ;
450 -> 454 ;
455 [label="gini = 0.0\nsamples = 3\nvalue = [0, 3, 0]\nclass = 1", fillcolor="#39e581"] ;
445 -> 455 ;
456 [label="latitude <= -8.939\ngini = 0.233\nsamples = 62\nvalue = [54, 3, 5]\nclass = 0", fillcolor="#e99355"] ;
444 -> 456 ;
457 [label="gini = 0.0\nsamples = 1\nvalue = [0, 1, 0]\nclass = 1", fillcolor="#39e581"] ;
456 -> 457 ;
458 [label="quantity_group_enough <= 0.5\ngini = 0.209\nsamples = 61\nvalue = [54, 2, 5]\nclass = 0", fillcolor="#e89152"] ;
456 -> 458 ;
459 [label="payment_pay monthly <= 0.5\ngini = 0.38\nsamples = 30\nvalue = [23, 2, 5]\nclass = 0", fillcolor="#eca470"] ;
458 -> 459 ;
460 [label="latitude <= -8.931\ngini = 0.292\nsamples = 24\nvalue = [20, 2, 2]\nclass = 0", fillcolor="#ea985d"] ;
459 -> 460 ;
461 [label="gini = 0.0\nsamples = 1\nvalue = [0, 1, 0]\nclass = 1", fillcolor="#39e581"] ;
460 -> 461 ;
462 [label="longitude <= 33.636\ngini = 0.234\nsamples = 23\nvalue = [20, 1, 2]\nclass = 0", fillcolor="#e99355"] ;
460 -> 462 ;
463 [label="management_wug <= 0.5\ngini = 0.169\nsamples = 22\nvalue = [20, 1, 1]\nclass = 0", fillcolor="#e78d4c"] ;
462 -> 463 ;
464 [label="longitude <= 33.552\ngini = 0.5\nsamples = 2\nvalue = [1, 0, 1]\nclass = 0", fillcolor="#ffffff"] ;
463 -> 464 ;
465 [label="gini = 0.0\nsamples = 1\nvalue = [1, 0, 0]\nclass = 0", fillcolor="#e58139"] ;
464 -> 465 ;
466 [label="gini = 0.0\nsamples = 1\nvalue = [0, 0, 1]\nclass = 2", fillcolor="#8139e5"] ;
464 -> 466 ;
467 [label="latitude <= -8.928\ngini = 0.095\nsamples = 20\nvalue = [19, 1, 0]\nclass = 0", fillcolor="#e68843"] ;
463 -> 467 ;
468 [label="latitude <= -8.929\ngini = 0.32\nsamples = 5\nvalue = [4, 1, 0]\nclass = 0", fillcolor="#eca06a"] ;
467 -> 468 ;
469 [label="gini = 0.0\nsamples = 4\nvalue = [4, 0, 0]\nclass = 0", fillcolor="#e58139"] ;
468 -> 469 ;
470 [label="gini = 0.0\nsamples = 1\nvalue = [0, 1, 0]\nclass = 1", fillcolor="#39e581"] ;
468 -> 470 ;
471 [label="gini = 0.0\nsamples = 15\nvalue = [15, 0, 0]\nclass = 0", fillcolor="#e58139"] ;
467 -> 471 ;
472 [label="gini = 0.0\nsamples = 1\nvalue = [0, 0, 1]\nclass = 2", fillcolor="#8139e5"] ;
462 -> 472 ;
473 [label="basin_Rufiji <= 0.5\ngini = 0.5\nsamples = 6\nvalue = [3, 0, 3]\nclass = 0", fillcolor="#ffffff"] ;
459 -> 473 ;
474 [label="gini = 0.0\nsamples = 2\nvalue = [0, 0, 2]\nclass = 2", fillcolor="#8139e5"] ;
473 -> 474 ;
475 [label="latitude <= -8.936\ngini = 0.375\nsamples = 4\nvalue = [3, 0, 1]\nclass = 0", fillcolor="#eeab7b"] ;
473 -> 475 ;
476 [label="gini = 0.0\nsamples = 2\nvalue = [2, 0, 0]\nclass = 0", fillcolor="#e58139"] ;
475 -> 476 ;
477 [label="latitude <= -8.935\ngini = 0.5\nsamples = 2\nvalue = [1, 0, 1]\nclass = 0", fillcolor="#ffffff"] ;
475 -> 477 ;
478 [label="gini = 0.0\nsamples = 1\nvalue = [0, 0, 1]\nclass = 2", fillcolor="#8139e5"] ;
477 -> 478 ;
479 [label="gini = 0.0\nsamples = 1\nvalue = [1, 0, 0]\nclass = 0", fillcolor="#e58139"] ;
477 -> 479 ;
480 [label="gini = 0.0\nsamples = 31\nvalue = [31, 0, 0]\nclass = 0", fillcolor="#e58139"] ;
458 -> 480 ;
481 [label="latitude <= -8.865\ngini = 0.444\nsamples = 15\nvalue = [10, 0, 5]\nclass = 0", fillcolor="#f2c09c"] ;
415 -> 481 ;
482 [label="latitude <= -8.936\ngini = 0.5\nsamples = 10\nvalue = [5, 0, 5]\nclass = 0", fillcolor="#ffffff"] ;
481 -> 482 ;
483 [label="gini = 0.0\nsamples = 4\nvalue = [4, 0, 0]\nclass = 0", fillcolor="#e58139"] ;
482 -> 483 ;
484 [label="longitude <= 33.577\ngini = 0.278\nsamples = 6\nvalue = [1, 0, 5]\nclass = 2", fillcolor="#9a61ea"] ;
482 -> 484 ;
485 [label="gini = 0.0\nsamples = 4\nvalue = [0, 0, 4]\nclass = 2", fillcolor="#8139e5"] ;
484 -> 485 ;
486 [label="latitude <= -8.877\ngini = 0.5\nsamples = 2\nvalue = [1, 0, 1]\nclass = 0", fillcolor="#ffffff"] ;
484 -> 486 ;
487 [label="gini = 0.0\nsamples = 1\nvalue = [1, 0, 0]\nclass = 0", fillcolor="#e58139"] ;
486 -> 487 ;
488 [label="gini = 0.0\nsamples = 1\nvalue = [0, 0, 1]\nclass = 2", fillcolor="#8139e5"] ;
486 -> 488 ;
489 [label="gini = 0.0\nsamples = 5\nvalue = [5, 0, 0]\nclass = 0", fillcolor="#e58139"] ;
481 -> 489 ;
490 [label="extraction_type_class_submersible <= 0.5\ngini = 0.594\nsamples = 172\nvalue = [95, 42, 35]\nclass = 0", fillcolor="#f4ccae"] ;
412 -> 490 ;
491 [label="latitude <= -8.939\ngini = 0.584\nsamples = 168\nvalue = [95, 42, 31]\nclass = 0", fillcolor="#f4caac"] ;
490 -> 491 ;
492 [label="latitude <= -8.957\ngini = 0.304\nsamples = 28\nvalue = [23, 4, 1]\nclass = 0", fillcolor="#ea9b62"] ;
491 -> 492 ;
493 [label="latitude <= -8.975\ngini = 0.463\nsamples = 11\nvalue = [7, 4, 0]\nclass = 0", fillcolor="#f4c9aa"] ;
492 -> 493 ;
494 [label="gini = 0.0\nsamples = 5\nvalue = [5, 0, 0]\nclass = 0", fillcolor="#e58139"] ;
493 -> 494 ;
495 [label="latitude <= -8.974\ngini = 0.444\nsamples = 6\nvalue = [2, 4, 0]\nclass = 1", fillcolor="#9cf2c0"] ;
493 -> 495 ;
496 [label="gini = 0.0\nsamples = 2\nvalue = [0, 2, 0]\nclass = 1", fillcolor="#39e581"] ;
495 -> 496 ;
497 [label="longitude <= 33.729\ngini = 0.5\nsamples = 4\nvalue = [2, 2, 0]\nclass = 0", fillcolor="#ffffff"] ;
495 -> 497 ;
498 [label="gini = 0.0\nsamples = 2\nvalue = [0, 2, 0]\nclass = 1", fillcolor="#39e581"] ;
497 -> 498 ;
499 [label="gini = 0.0\nsamples = 2\nvalue = [2, 0, 0]\nclass = 0", fillcolor="#e58139"] ;
497 -> 499 ;
500 [label="latitude <= -8.95\ngini = 0.111\nsamples = 17\nvalue = [16, 0, 1]\nclass = 0", fillcolor="#e78945"] ;
492 -> 500 ;
501 [label="longitude <= 33.709\ngini = 0.444\nsamples = 3\nvalue = [2, 0, 1]\nclass = 0", fillcolor="#f2c09c"] ;
500 -> 501 ;
502 [label="gini = 0.0\nsamples = 2\nvalue = [2, 0, 0]\nclass = 0", fillcolor="#e58139"] ;
501 -> 502 ;
503 [label="gini = 0.0\nsamples = 1\nvalue = [0, 0, 1]\nclass = 2", fillcolor="#8139e5"] ;
501 -> 503 ;
504 [label="gini = 0.0\nsamples = 14\nvalue = [14, 0, 0]\nclass = 0", fillcolor="#e58139"] ;
500 -> 504 ;
505 [label="latitude <= -8.854\ngini = 0.616\nsamples = 140\nvalue = [72, 38, 30]\nclass = 0", fillcolor="#f6d5bd"] ;
491 -> 505 ;
506 [label="quantity_seasonal <= 0.5\ngini = 0.475\nsamples = 22\nvalue = [5, 2, 15]\nclass = 2", fillcolor="#b58bf0"] ;
505 -> 506 ;
507 [label="latitude <= -8.932\ngini = 0.444\nsamples = 21\nvalue = [4, 2, 15]\nclass = 2", fillcolor="#ad7fee"] ;
506 -> 507 ;
508 [label="latitude <= -8.933\ngini = 0.611\nsamples = 6\nvalue = [2, 1, 3]\nclass = 2", fillcolor="#e0cef8"] ;
507 -> 508 ;
509 [label="latitude <= -8.935\ngini = 0.48\nsamples = 5\nvalue = [2, 0, 3]\nclass = 2", fillcolor="#d5bdf6"] ;
508 -> 509 ;
510 [label="latitude <= -8.937\ngini = 0.375\nsamples = 4\nvalue = [1, 0, 3]\nclass = 2", fillcolor="#ab7bee"] ;
509 -> 510 ;
511 [label="longitude <= 33.761\ngini = 0.5\nsamples = 2\nvalue = [1, 0, 1]\nclass = 0", fillcolor="#ffffff"] ;
510 -> 511 ;
512 [label="gini = 0.0\nsamples = 1\nvalue = [1, 0, 0]\nclass = 0", fillcolor="#e58139"] ;
511 -> 512 ;
513 [label="gini = 0.0\nsamples = 1\nvalue = [0, 0, 1]\nclass = 2", fillcolor="#8139e5"] ;
511 -> 513 ;
514 [label="gini = 0.0\nsamples = 2\nvalue = [0, 0, 2]\nclass = 2", fillcolor="#8139e5"] ;
510 -> 514 ;
515 [label="gini = 0.0\nsamples = 1\nvalue = [1, 0, 0]\nclass = 0", fillcolor="#e58139"] ;
509 -> 515 ;
516 [label="gini = 0.0\nsamples = 1\nvalue = [0, 1, 0]\nclass = 1", fillcolor="#39e581"] ;
508 -> 516 ;
517 [label="longitude <= 33.687\ngini = 0.338\nsamples = 15\nvalue = [2, 1, 12]\nclass = 2", fillcolor="#9e67eb"] ;
507 -> 517 ;
518 [label="longitude <= 33.676\ngini = 0.531\nsamples = 8\nvalue = [2, 1, 5]\nclass = 2", fillcolor="#c09cf2"] ;
517 -> 518 ;
519 [label="latitude <= -8.856\ngini = 0.449\nsamples = 7\nvalue = [1, 1, 5]\nclass = 2", fillcolor="#ab7bee"] ;
518 -> 519 ;
520 [label="longitude <= 33.638\ngini = 0.278\nsamples = 6\nvalue = [0, 1, 5]\nclass = 2", fillcolor="#9a61ea"] ;
519 -> 520 ;
521 [label="longitude <= 33.637\ngini = 0.5\nsamples = 2\nvalue = [0, 1, 1]\nclass = 1", fillcolor="#ffffff"] ;
520 -> 521 ;
522 [label="gini = 0.0\nsamples = 1\nvalue = [0, 0, 1]\nclass = 2", fillcolor="#8139e5"] ;
521 -> 522 ;
523 [label="gini = 0.0\nsamples = 1\nvalue = [0, 1, 0]\nclass = 1", fillcolor="#39e581"] ;
521 -> 523 ;
524 [label="gini = 0.0\nsamples = 4\nvalue = [0, 0, 4]\nclass = 2", fillcolor="#8139e5"] ;
520 -> 524 ;
525 [label="gini = 0.0\nsamples = 1\nvalue = [1, 0, 0]\nclass = 0", fillcolor="#e58139"] ;
519 -> 525 ;
526 [label="gini = 0.0\nsamples = 1\nvalue = [1, 0, 0]\nclass = 0", fillcolor="#e58139"] ;
518 -> 526 ;
527 [label="gini = 0.0\nsamples = 7\nvalue = [0, 0, 7]\nclass = 2", fillcolor="#8139e5"] ;
517 -> 527 ;
528 [label="gini = 0.0\nsamples = 1\nvalue = [1, 0, 0]\nclass = 0", fillcolor="#e58139"] ;
506 -> 528 ;
529 [label="longitude <= 34.036\ngini = 0.568\nsamples = 118\nvalue = [67, 36, 15]\nclass = 0", fillcolor="#f5cfb4"] ;
505 -> 529 ;
530 [label="quantity_seasonal <= 0.5\ngini = 0.514\nsamples = 79\nvalue = [50, 22, 7]\nclass = 0", fillcolor="#f2c19e"] ;
529 -> 530 ;
531 [label="longitude <= 33.642\ngini = 0.342\nsamples = 39\nvalue = [31, 6, 2]\nclass = 0", fillcolor="#eba069"] ;
530 -> 531 ;
532 [label="gini = 0.0\nsamples = 1\nvalue = [0, 0, 1]\nclass = 2", fillcolor="#8139e5"] ;
531 -> 532 ;
533 [label="payment_unknown <= 0.5\ngini = 0.309\nsamples = 38\nvalue = [31, 6, 1]\nclass = 0", fillcolor="#eb9d64"] ;
531 -> 533 ;
534 [label="management_wua <= 0.5\ngini = 0.279\nsamples = 37\nvalue = [31, 5, 1]\nclass = 0", fillcolor="#ea995e"] ;
533 -> 534 ;
535 [label="gini = 0.0\nsamples = 8\nvalue = [8, 0, 0]\nclass = 0", fillcolor="#e58139"] ;
534 -> 535 ;
536 [label="longitude <= 33.871\ngini = 0.34\nsamples = 29\nvalue = [23, 5, 1]\nclass = 0", fillcolor="#eca06a"] ;
534 -> 536 ;
537 [label="latitude <= -8.832\ngini = 0.293\nsamples = 28\nvalue = [23, 5, 0]\nclass = 0", fillcolor="#eb9c64"] ;
536 -> 537 ;
538 [label="gini = 0.0\nsamples = 1\nvalue = [0, 1, 0]\nclass = 1", fillcolor="#39e581"] ;
537 -> 538 ;
539 [label="latitude <= -8.765\ngini = 0.252\nsamples = 27\nvalue = [23, 4, 0]\nclass = 0", fillcolor="#ea975b"] ;
537 -> 539 ;
540 [label="longitude <= 33.853\ngini = 0.159\nsamples = 23\nvalue = [21, 2, 0]\nclass = 0", fillcolor="#e78d4c"] ;
539 -> 540 ;
541 [label="gini = 0.0\nsamples = 12\nvalue = [12, 0, 0]\nclass = 0", fillcolor="#e58139"] ;
540 -> 541 ;
542 [label="longitude <= 33.853\ngini = 0.298\nsamples = 11\nvalue = [9, 2, 0]\nclass = 0", fillcolor="#eb9d65"] ;
540 -> 542 ;
543 [label="gini = 0.0\nsamples = 1\nvalue = [0, 1, 0]\nclass = 1", fillcolor="#39e581"] ;
542 -> 543 ;
544 [label="longitude <= 33.854\ngini = 0.18\nsamples = 10\nvalue = [9, 1, 0]\nclass = 0", fillcolor="#e88f4f"] ;
542 -> 544 ;
545 [label="gini = 0.0\nsamples = 5\nvalue = [5, 0, 0]\nclass = 0", fillcolor="#e58139"] ;
544 -> 545 ;
546 [label="latitude <= -8.827\ngini = 0.32\nsamples = 5\nvalue = [4, 1, 0]\nclass = 0", fillcolor="#eca06a"] ;
544 -> 546 ;
547 [label="gini = 0.0\nsamples = 4\nvalue = [4, 0, 0]\nclass = 0", fillcolor="#e58139"] ;
546 -> 547 ;
548 [label="gini = 0.0\nsamples = 1\nvalue = [0, 1, 0]\nclass = 1", fillcolor="#39e581"] ;
546 -> 548 ;
549 [label="longitude <= 33.846\ngini = 0.5\nsamples = 4\nvalue = [2, 2, 0]\nclass = 0", fillcolor="#ffffff"] ;
539 -> 549 ;
550 [label="gini = 0.0\nsamples = 1\nvalue = [0, 1, 0]\nclass = 1", fillcolor="#39e581"] ;
549 -> 550 ;
551 [label="longitude <= 33.85\ngini = 0.444\nsamples = 3\nvalue = [2, 1, 0]\nclass = 0", fillcolor="#f2c09c"] ;
549 -> 551 ;
552 [label="gini = 0.0\nsamples = 2\nvalue = [2, 0, 0]\nclass = 0", fillcolor="#e58139"] ;
551 -> 552 ;
553 [label="gini = 0.0\nsamples = 1\nvalue = [0, 1, 0]\nclass = 1", fillcolor="#39e581"] ;
551 -> 553 ;
554 [label="gini = 0.0\nsamples = 1\nvalue = [0, 0, 1]\nclass = 2", fillcolor="#8139e5"] ;
536 -> 554 ;
555 [label="gini = 0.0\nsamples = 1\nvalue = [0, 1, 0]\nclass = 1", fillcolor="#39e581"] ;
533 -> 555 ;
556 [label="latitude <= -8.769\ngini = 0.599\nsamples = 40\nvalue = [19, 16, 5]\nclass = 0", fillcolor="#fcefe6"] ;
530 -> 556 ;
557 [label="longitude <= 33.854\ngini = 0.595\nsamples = 22\nvalue = [6, 12, 4]\nclass = 1", fillcolor="#b5f5d0"] ;
556 -> 557 ;
558 [label="latitude <= -8.778\ngini = 0.56\nsamples = 20\nvalue = [4, 12, 4]\nclass = 1", fillcolor="#9cf2c0"] ;
557 -> 558 ;
559 [label="longitude <= 33.841\ngini = 0.5\nsamples = 8\nvalue = [0, 4, 4]\nclass = 1", fillcolor="#ffffff"] ;
558 -> 559 ;
560 [label="gini = 0.0\nsamples = 3\nvalue = [0, 0, 3]\nclass = 2", fillcolor="#8139e5"] ;
559 -> 560 ;
561 [label="longitude <= 33.852\ngini = 0.32\nsamples = 5\nvalue = [0, 4, 1]\nclass = 1", fillcolor="#6aeca0"] ;
559 -> 561 ;
562 [label="gini = 0.0\nsamples = 4\nvalue = [0, 4, 0]\nclass = 1", fillcolor="#39e581"] ;
561 -> 562 ;
563 [label="gini = 0.0\nsamples = 1\nvalue = [0, 0, 1]\nclass = 2", fillcolor="#8139e5"] ;
561 -> 563 ;
564 [label="waterpoint_type_group_hand pump <= 0.5\ngini = 0.444\nsamples = 12\nvalue = [4, 8, 0]\nclass = 1", fillcolor="#9cf2c0"] ;
558 -> 564 ;
565 [label="longitude <= 33.644\ngini = 0.397\nsamples = 11\nvalue = [3, 8, 0]\nclass = 1", fillcolor="#83efb0"] ;
564 -> 565 ;
566 [label="latitude <= -8.773\ngini = 0.444\nsamples = 3\nvalue = [2, 1, 0]\nclass = 0", fillcolor="#f2c09c"] ;
565 -> 566 ;
567 [label="gini = 0.0\nsamples = 1\nvalue = [0, 1, 0]\nclass = 1", fillcolor="#39e581"] ;
566 -> 567 ;
568 [label="gini = 0.0\nsamples = 2\nvalue = [2, 0, 0]\nclass = 0", fillcolor="#e58139"] ;
566 -> 568 ;
569 [label="latitude <= -8.772\ngini = 0.219\nsamples = 8\nvalue = [1, 7, 0]\nclass = 1", fillcolor="#55e993"] ;
565 -> 569 ;
570 [label="latitude <= -8.773\ngini = 0.375\nsamples = 4\nvalue = [1, 3, 0]\nclass = 1", fillcolor="#7beeab"] ;
569 -> 570 ;
571 [label="gini = 0.0\nsamples = 3\nvalue = [0, 3, 0]\nclass = 1", fillcolor="#39e581"] ;
570 -> 571 ;
572 [label="gini = 0.0\nsamples = 1\nvalue = [1, 0, 0]\nclass = 0", fillcolor="#e58139"] ;
570 -> 572 ;
573 [label="gini = 0.0\nsamples = 4\nvalue = [0, 4, 0]\nclass = 1", fillcolor="#39e581"] ;
569 -> 573 ;
574 [label="gini = 0.0\nsamples = 1\nvalue = [1, 0, 0]\nclass = 0", fillcolor="#e58139"] ;
564 -> 574 ;
575 [label="gini = 0.0\nsamples = 2\nvalue = [2, 0, 0]\nclass = 0", fillcolor="#e58139"] ;
557 -> 575 ;
576 [label="longitude <= 33.637\ngini = 0.426\nsamples = 18\nvalue = [13, 4, 1]\nclass = 0", fillcolor="#eeae80"] ;
556 -> 576 ;
577 [label="gini = 0.0\nsamples = 1\nvalue = [0, 0, 1]\nclass = 2", fillcolor="#8139e5"] ;
576 -> 577 ;
578 [label="longitude <= 33.663\ngini = 0.36\nsamples = 17\nvalue = [13, 4, 0]\nclass = 0", fillcolor="#eda876"] ;
576 -> 578 ;
579 [label="latitude <= -8.761\ngini = 0.305\nsamples = 16\nvalue = [13, 3, 0]\nclass = 0", fillcolor="#eb9e67"] ;
578 -> 579 ;
580 [label="gini = 0.0\nsamples = 7\nvalue = [7, 0, 0]\nclass = 0", fillcolor="#e58139"] ;
579 -> 580 ;
581 [label="longitude <= 33.647\ngini = 0.444\nsamples = 9\nvalue = [6, 3, 0]\nclass = 0", fillcolor="#f2c09c"] ;
579 -> 581 ;
582 [label="longitude <= 33.639\ngini = 0.444\nsamples = 3\nvalue = [1, 2, 0]\nclass = 1", fillcolor="#9cf2c0"] ;
581 -> 582 ;
583 [label="gini = 0.0\nsamples = 1\nvalue = [1, 0, 0]\nclass = 0", fillcolor="#e58139"] ;
582 -> 583 ;
584 [label="gini = 0.0\nsamples = 2\nvalue = [0, 2, 0]\nclass = 1", fillcolor="#39e581"] ;
582 -> 584 ;
585 [label="latitude <= -8.716\ngini = 0.278\nsamples = 6\nvalue = [5, 1, 0]\nclass = 0", fillcolor="#ea9a61"] ;
581 -> 585 ;
586 [label="latitude <= -8.72\ngini = 0.444\nsamples = 3\nvalue = [2, 1, 0]\nclass = 0", fillcolor="#f2c09c"] ;
585 -> 586 ;
587 [label="gini = 0.0\nsamples = 2\nvalue = [2, 0, 0]\nclass = 0", fillcolor="#e58139"] ;
586 -> 587 ;
588 [label="gini = 0.0\nsamples = 1\nvalue = [0, 1, 0]\nclass = 1", fillcolor="#39e581"] ;
586 -> 588 ;
589 [label="gini = 0.0\nsamples = 3\nvalue = [3, 0, 0]\nclass = 0", fillcolor="#e58139"] ;
585 -> 589 ;
590 [label="gini = 0.0\nsamples = 1\nvalue = [0, 1, 0]\nclass = 1", fillcolor="#39e581"] ;
578 -> 590 ;
591 [label="quantity_insufficient <= 0.5\ngini = 0.639\nsamples = 39\nvalue = [17, 14, 8]\nclass = 0", fillcolor="#fcf0e7"] ;
529 -> 591 ;
592 [label="latitude <= -8.785\ngini = 0.461\nsamples = 23\nvalue = [16, 5, 2]\nclass = 0", fillcolor="#efb286"] ;
591 -> 592 ;
593 [label="longitude <= 34.081\ngini = 0.304\nsamples = 17\nvalue = [14, 2, 1]\nclass = 0", fillcolor="#ea9a61"] ;
592 -> 593 ;
594 [label="gini = 0.0\nsamples = 1\nvalue = [0, 0, 1]\nclass = 2", fillcolor="#8139e5"] ;
593 -> 594 ;
595 [label="longitude <= 34.138\ngini = 0.219\nsamples = 16\nvalue = [14, 2, 0]\nclass = 0", fillcolor="#e99355"] ;
593 -> 595 ;
596 [label="gini = 0.0\nsamples = 9\nvalue = [9, 0, 0]\nclass = 0", fillcolor="#e58139"] ;
595 -> 596 ;
597 [label="longitude <= 34.138\ngini = 0.408\nsamples = 7\nvalue = [5, 2, 0]\nclass = 0", fillcolor="#efb388"] ;
595 -> 597 ;
598 [label="gini = 0.0\nsamples = 1\nvalue = [0, 1, 0]\nclass = 1", fillcolor="#39e581"] ;
597 -> 598 ;
599 [label="longitude <= 34.14\ngini = 0.278\nsamples = 6\nvalue = [5, 1, 0]\nclass = 0", fillcolor="#ea9a61"] ;
597 -> 599 ;
600 [label="gini = 0.0\nsamples = 3\nvalue = [3, 0, 0]\nclass = 0", fillcolor="#e58139"] ;
599 -> 600 ;
601 [label="latitude <= -8.799\ngini = 0.444\nsamples = 3\nvalue = [2, 1, 0]\nclass = 0", fillcolor="#f2c09c"] ;
599 -> 601 ;
602 [label="gini = 0.0\nsamples = 1\nvalue = [0, 1, 0]\nclass = 1", fillcolor="#39e581"] ;
601 -> 602 ;
603 [label="gini = 0.0\nsamples = 2\nvalue = [2, 0, 0]\nclass = 0", fillcolor="#e58139"] ;
601 -> 603 ;
604 [label="latitude <= -8.707\ngini = 0.611\nsamples = 6\nvalue = [2, 3, 1]\nclass = 1", fillcolor="#cef8e0"] ;
592 -> 604 ;
605 [label="longitude <= 34.135\ngini = 0.48\nsamples = 5\nvalue = [2, 3, 0]\nclass = 1", fillcolor="#bdf6d5"] ;
604 -> 605 ;
606 [label="gini = 0.0\nsamples = 2\nvalue = [0, 2, 0]\nclass = 1", fillcolor="#39e581"] ;
605 -> 606 ;
607 [label="longitude <= 34.149\ngini = 0.444\nsamples = 3\nvalue = [2, 1, 0]\nclass = 0", fillcolor="#f2c09c"] ;
605 -> 607 ;
608 [label="gini = 0.0\nsamples = 2\nvalue = [2, 0, 0]\nclass = 0", fillcolor="#e58139"] ;
607 -> 608 ;
609 [label="gini = 0.0\nsamples = 1\nvalue = [0, 1, 0]\nclass = 1", fillcolor="#39e581"] ;
607 -> 609 ;
610 [label="gini = 0.0\nsamples = 1\nvalue = [0, 0, 1]\nclass = 2", fillcolor="#8139e5"] ;
604 -> 610 ;
611 [label="latitude <= -8.833\ngini = 0.539\nsamples = 16\nvalue = [1, 9, 6]\nclass = 1", fillcolor="#c4f7d9"] ;
591 -> 611 ;
612 [label="longitude <= 34.059\ngini = 0.245\nsamples = 7\nvalue = [1, 6, 0]\nclass = 1", fillcolor="#5ae996"] ;
611 -> 612 ;
613 [label="gini = 0.0\nsamples = 5\nvalue = [0, 5, 0]\nclass = 1", fillcolor="#39e581"] ;
612 -> 613 ;
614 [label="longitude <= 34.062\ngini = 0.5\nsamples = 2\nvalue = [1, 1, 0]\nclass = 0", fillcolor="#ffffff"] ;
612 -> 614 ;
615 [label="gini = 0.0\nsamples = 1\nvalue = [1, 0, 0]\nclass = 0", fillcolor="#e58139"] ;
614 -> 615 ;
616 [label="gini = 0.0\nsamples = 1\nvalue = [0, 1, 0]\nclass = 1", fillcolor="#39e581"] ;
614 -> 616 ;
617 [label="longitude <= 34.082\ngini = 0.444\nsamples = 9\nvalue = [0, 3, 6]\nclass = 2", fillcolor="#c09cf2"] ;
611 -> 617 ;
618 [label="latitude <= -8.809\ngini = 0.245\nsamples = 7\nvalue = [0, 1, 6]\nclass = 2", fillcolor="#965ae9"] ;
617 -> 618 ;
619 [label="longitude <= 34.066\ngini = 0.444\nsamples = 3\nvalue = [0, 1, 2]\nclass = 2", fillcolor="#c09cf2"] ;
618 -> 619 ;
620 [label="gini = 0.0\nsamples = 2\nvalue = [0, 0, 2]\nclass = 2", fillcolor="#8139e5"] ;
619 -> 620 ;
621 [label="gini = 0.0\nsamples = 1\nvalue = [0, 1, 0]\nclass = 1", fillcolor="#39e581"] ;
619 -> 621 ;
622 [label="gini = 0.0\nsamples = 4\nvalue = [0, 0, 4]\nclass = 2", fillcolor="#8139e5"] ;
618 -> 622 ;
623 [label="gini = 0.0\nsamples = 2\nvalue = [0, 2, 0]\nclass = 1", fillcolor="#39e581"] ;
617 -> 623 ;
624 [label="gini = 0.0\nsamples = 4\nvalue = [0, 0, 4]\nclass = 2", fillcolor="#8139e5"] ;
490 -> 624 ;
625 [label="latitude <= -10.74\ngini = 0.234\nsamples = 499\nvalue = [434, 42, 23]\nclass = 0", fillcolor="#e99355"] ;
411 -> 625 ;
626 [label="construction_year <= 1988.5\ngini = 0.428\nsamples = 83\nvalue = [58, 24, 1]\nclass = 0", fillcolor="#f0b68d"] ;
625 -> 626 ;
627 [label="longitude <= 35.525\ngini = 0.499\nsamples = 25\nvalue = [12, 13, 0]\nclass = 1", fillcolor="#f0fdf5"] ;
626 -> 627 ;
628 [label="latitude <= -10.838\ngini = 0.346\nsamples = 9\nvalue = [2, 7, 0]\nclass = 1", fillcolor="#72eca5"] ;
627 -> 628 ;
629 [label="district_code <= 2.5\ngini = 0.444\nsamples = 3\nvalue = [2, 1, 0]\nclass = 0", fillcolor="#f2c09c"] ;
628 -> 629 ;
630 [label="gini = 0.0\nsamples = 2\nvalue = [2, 0, 0]\nclass = 0", fillcolor="#e58139"] ;
629 -> 630 ;
631 [label="gini = 0.0\nsamples = 1\nvalue = [0, 1, 0]\nclass = 1", fillcolor="#39e581"] ;
629 -> 631 ;
632 [label="gini = 0.0\nsamples = 6\nvalue = [0, 6, 0]\nclass = 1", fillcolor="#39e581"] ;
628 -> 632 ;
633 [label="longitude <= 35.536\ngini = 0.469\nsamples = 16\nvalue = [10, 6, 0]\nclass = 0", fillcolor="#f5cdb0"] ;
627 -> 633 ;
634 [label="gini = 0.0\nsamples = 6\nvalue = [6, 0, 0]\nclass = 0", fillcolor="#e58139"] ;
633 -> 634 ;
635 [label="latitude <= -10.808\ngini = 0.48\nsamples = 10\nvalue = [4, 6, 0]\nclass = 1", fillcolor="#bdf6d5"] ;
633 -> 635 ;
636 [label="gini = 0.0\nsamples = 5\nvalue = [0, 5, 0]\nclass = 1", fillcolor="#39e581"] ;
635 -> 636 ;
637 [label="longitude <= 35.562\ngini = 0.32\nsamples = 5\nvalue = [4, 1, 0]\nclass = 0", fillcolor="#eca06a"] ;
635 -> 637 ;
638 [label="gini = 0.0\nsamples = 4\nvalue = [4, 0, 0]\nclass = 0", fillcolor="#e58139"] ;
637 -> 638 ;
639 [label="gini = 0.0\nsamples = 1\nvalue = [0, 1, 0]\nclass = 1", fillcolor="#39e581"] ;
637 -> 639 ;
640 [label="gps_height <= 1444.0\ngini = 0.335\nsamples = 58\nvalue = [46, 11, 1]\nclass = 0", fillcolor="#eca16c"] ;
626 -> 640 ;
641 [label="latitude <= -10.748\ngini = 0.241\nsamples = 44\nvalue = [38, 5, 1]\nclass = 0", fillcolor="#e99457"] ;
640 -> 641 ;
642 [label="quantity_group_insufficient <= 0.5\ngini = 0.21\nsamples = 43\nvalue = [38, 4, 1]\nclass = 0", fillcolor="#e89152"] ;
641 -> 642 ;
643 [label="longitude <= 34.975\ngini = 0.062\nsamples = 31\nvalue = [30, 1, 0]\nclass = 0", fillcolor="#e68540"] ;
642 -> 643 ;
644 [label="longitude <= 34.972\ngini = 0.375\nsamples = 4\nvalue = [3, 1, 0]\nclass = 0", fillcolor="#eeab7b"] ;
643 -> 644 ;
645 [label="gini = 0.0\nsamples = 3\nvalue = [3, 0, 0]\nclass = 0", fillcolor="#e58139"] ;
644 -> 645 ;
646 [label="gini = 0.0\nsamples = 1\nvalue = [0, 1, 0]\nclass = 1", fillcolor="#39e581"] ;
644 -> 646 ;
647 [label="gini = 0.0\nsamples = 27\nvalue = [27, 0, 0]\nclass = 0", fillcolor="#e58139"] ;
643 -> 647 ;
648 [label="population <= 277.0\ngini = 0.486\nsamples = 12\nvalue = [8, 3, 1]\nclass = 0", fillcolor="#f1b991"] ;
642 -> 648 ;
649 [label="population <= 45.0\ngini = 0.32\nsamples = 10\nvalue = [8, 2, 0]\nclass = 0", fillcolor="#eca06a"] ;
648 -> 649 ;
650 [label="gini = 0.0\nsamples = 1\nvalue = [0, 1, 0]\nclass = 1", fillcolor="#39e581"] ;
649 -> 650 ;
651 [label="longitude <= 35.167\ngini = 0.198\nsamples = 9\nvalue = [8, 1, 0]\nclass = 0", fillcolor="#e89152"] ;
649 -> 651 ;
652 [label="gini = 0.0\nsamples = 6\nvalue = [6, 0, 0]\nclass = 0", fillcolor="#e58139"] ;
651 -> 652 ;
653 [label="longitude <= 35.168\ngini = 0.444\nsamples = 3\nvalue = [2, 1, 0]\nclass = 0", fillcolor="#f2c09c"] ;
651 -> 653 ;
654 [label="gini = 0.0\nsamples = 1\nvalue = [0, 1, 0]\nclass = 1", fillcolor="#39e581"] ;
653 -> 654 ;
655 [label="gini = 0.0\nsamples = 2\nvalue = [2, 0, 0]\nclass = 0", fillcolor="#e58139"] ;
653 -> 655 ;
656 [label="extraction_type_group_gravity <= 0.5\ngini = 0.5\nsamples = 2\nvalue = [0, 1, 1]\nclass = 1", fillcolor="#ffffff"] ;
648 -> 656 ;
657 [label="gini = 0.0\nsamples = 1\nvalue = [0, 0, 1]\nclass = 2", fillcolor="#8139e5"] ;
656 -> 657 ;
658 [label="gini = 0.0\nsamples = 1\nvalue = [0, 1, 0]\nclass = 1", fillcolor="#39e581"] ;
656 -> 658 ;
659 [label="gini = 0.0\nsamples = 1\nvalue = [0, 1, 0]\nclass = 1", fillcolor="#39e581"] ;
641 -> 659 ;
660 [label="longitude <= 34.899\ngini = 0.49\nsamples = 14\nvalue = [8, 6, 0]\nclass = 0", fillcolor="#f8e0ce"] ;
640 -> 660 ;
661 [label="gini = 0.0\nsamples = 6\nvalue = [6, 0, 0]\nclass = 0", fillcolor="#e58139"] ;
660 -> 661 ;
662 [label="longitude <= 34.927\ngini = 0.375\nsamples = 8\nvalue = [2, 6, 0]\nclass = 1", fillcolor="#7beeab"] ;
660 -> 662 ;
663 [label="gini = 0.0\nsamples = 5\nvalue = [0, 5, 0]\nclass = 1", fillcolor="#39e581"] ;
662 -> 663 ;
664 [label="gps_height <= 1521.0\ngini = 0.444\nsamples = 3\nvalue = [2, 1, 0]\nclass = 0", fillcolor="#f2c09c"] ;
662 -> 664 ;
665 [label="gini = 0.0\nsamples = 1\nvalue = [0, 1, 0]\nclass = 1", fillcolor="#39e581"] ;
664 -> 665 ;
666 [label="gini = 0.0\nsamples = 2\nvalue = [2, 0, 0]\nclass = 0", fillcolor="#e58139"] ;
664 -> 666 ;
667 [label="extraction_type_afridev <= 0.5\ngini = 0.178\nsamples = 416\nvalue = [376, 18, 22]\nclass = 0", fillcolor="#e88e4d"] ;
625 -> 667 ;
668 [label="region_Morogoro <= 0.5\ngini = 0.171\nsamples = 414\nvalue = [376, 18, 20]\nclass = 0", fillcolor="#e88d4c"] ;
667 -> 668 ;
669 [label="management_vwc <= 0.5\ngini = 0.163\nsamples = 412\nvalue = [376, 17, 19]\nclass = 0", fillcolor="#e78d4b"] ;
668 -> 669 ;
670 [label="construction_year <= 1980.5\ngini = 0.261\nsamples = 107\nvalue = [91, 13, 3]\nclass = 0", fillcolor="#e9965b"] ;
669 -> 670 ;
671 [label="management_private operator <= 0.5\ngini = 0.464\nsamples = 46\nvalue = [31, 13, 2]\nclass = 0", fillcolor="#f1ba93"] ;
670 -> 671 ;
672 [label="quantity_group_enough <= 0.5\ngini = 0.501\nsamples = 40\nvalue = [25, 13, 2]\nclass = 0", fillcolor="#f3c7a7"] ;
671 -> 672 ;
673 [label="construction_year <= 988.5\ngini = 0.551\nsamples = 15\nvalue = [6, 8, 1]\nclass = 1", fillcolor="#d3f9e3"] ;
672 -> 673 ;
674 [label="longitude <= 35.858\ngini = 0.562\nsamples = 11\nvalue = [6, 4, 1]\nclass = 0", fillcolor="#f8dbc6"] ;
673 -> 674 ;
675 [label="latitude <= -8.149\ngini = 0.494\nsamples = 9\nvalue = [6, 2, 1]\nclass = 0", fillcolor="#f0b78e"] ;
674 -> 675 ;
676 [label="longitude <= 34.865\ngini = 0.5\nsamples = 4\nvalue = [2, 2, 0]\nclass = 0", fillcolor="#ffffff"] ;
675 -> 676 ;
677 [label="gini = 0.0\nsamples = 2\nvalue = [2, 0, 0]\nclass = 0", fillcolor="#e58139"] ;
676 -> 677 ;
678 [label="gini = 0.0\nsamples = 2\nvalue = [0, 2, 0]\nclass = 1", fillcolor="#39e581"] ;
676 -> 678 ;
679 [label="latitude <= -8.14\ngini = 0.32\nsamples = 5\nvalue = [4, 0, 1]\nclass = 0", fillcolor="#eca06a"] ;
675 -> 679 ;
680 [label="latitude <= -8.144\ngini = 0.5\nsamples = 2\nvalue = [1, 0, 1]\nclass = 0", fillcolor="#ffffff"] ;
679 -> 680 ;
681 [label="gini = 0.0\nsamples = 1\nvalue = [1, 0, 0]\nclass = 0", fillcolor="#e58139"] ;
680 -> 681 ;
682 [label="gini = 0.0\nsamples = 1\nvalue = [0, 0, 1]\nclass = 2", fillcolor="#8139e5"] ;
680 -> 682 ;
683 [label="gini = 0.0\nsamples = 3\nvalue = [3, 0, 0]\nclass = 0", fillcolor="#e58139"] ;
679 -> 683 ;
684 [label="gini = 0.0\nsamples = 2\nvalue = [0, 2, 0]\nclass = 1", fillcolor="#39e581"] ;
674 -> 684 ;
685 [label="gini = 0.0\nsamples = 4\nvalue = [0, 4, 0]\nclass = 1", fillcolor="#39e581"] ;
673 -> 685 ;
686 [label="longitude <= 34.594\ngini = 0.381\nsamples = 25\nvalue = [19, 5, 1]\nclass = 0", fillcolor="#eda774"] ;
672 -> 686 ;
687 [label="longitude <= 34.557\ngini = 0.198\nsamples = 18\nvalue = [16, 2, 0]\nclass = 0", fillcolor="#e89152"] ;
686 -> 687 ;
688 [label="gini = 0.0\nsamples = 1\nvalue = [0, 1, 0]\nclass = 1", fillcolor="#39e581"] ;
687 -> 688 ;
689 [label="population <= 70.0\ngini = 0.111\nsamples = 17\nvalue = [16, 1, 0]\nclass = 0", fillcolor="#e78945"] ;
687 -> 689 ;
690 [label="gini = 0.0\nsamples = 12\nvalue = [12, 0, 0]\nclass = 0", fillcolor="#e58139"] ;
689 -> 690 ;
691 [label="latitude <= -8.942\ngini = 0.32\nsamples = 5\nvalue = [4, 1, 0]\nclass = 0", fillcolor="#eca06a"] ;
689 -> 691 ;
692 [label="gini = 0.0\nsamples = 1\nvalue = [0, 1, 0]\nclass = 1", fillcolor="#39e581"] ;
691 -> 692 ;
693 [label="gini = 0.0\nsamples = 4\nvalue = [4, 0, 0]\nclass = 0", fillcolor="#e58139"] ;
691 -> 693 ;
694 [label="population <= 27.5\ngini = 0.612\nsamples = 7\nvalue = [3, 3, 1]\nclass = 0", fillcolor="#ffffff"] ;
686 -> 694 ;
695 [label="gini = 0.0\nsamples = 3\nvalue = [3, 0, 0]\nclass = 0", fillcolor="#e58139"] ;
694 -> 695 ;
696 [label="longitude <= 34.76\ngini = 0.375\nsamples = 4\nvalue = [0, 3, 1]\nclass = 1", fillcolor="#7beeab"] ;
694 -> 696 ;
697 [label="gini = 0.0\nsamples = 3\nvalue = [0, 3, 0]\nclass = 1", fillcolor="#39e581"] ;
696 -> 697 ;
698 [label="gini = 0.0\nsamples = 1\nvalue = [0, 0, 1]\nclass = 2", fillcolor="#8139e5"] ;
696 -> 698 ;
699 [label="gini = 0.0\nsamples = 6\nvalue = [6, 0, 0]\nclass = 0", fillcolor="#e58139"] ;
671 -> 699 ;
700 [label="gps_height <= 857.0\ngini = 0.032\nsamples = 61\nvalue = [60, 0, 1]\nclass = 0", fillcolor="#e5833c"] ;
670 -> 700 ;
701 [label="gini = 0.0\nsamples = 1\nvalue = [0, 0, 1]\nclass = 2", fillcolor="#8139e5"] ;
700 -> 701 ;
702 [label="gini = 0.0\nsamples = 60\nvalue = [60, 0, 0]\nclass = 0", fillcolor="#e58139"] ;
700 -> 702 ;
703 [label="region_code <= 12.5\ngini = 0.124\nsamples = 305\nvalue = [285, 4, 16]\nclass = 0", fillcolor="#e78a47"] ;
669 -> 703 ;
704 [label="source_type_dam <= 0.5\ngini = 0.118\nsamples = 304\nvalue = [285, 4, 15]\nclass = 0", fillcolor="#e78946"] ;
703 -> 704 ;
705 [label="extraction_type_swn 80 <= 0.5\ngini = 0.113\nsamples = 303\nvalue = [285, 4, 14]\nclass = 0", fillcolor="#e78945"] ;
704 -> 705 ;
706 [label="latitude <= -6.234\ngini = 0.093\nsamples = 289\nvalue = [275, 4, 10]\nclass = 0", fillcolor="#e68743"] ;
705 -> 706 ;
707 [label="longitude <= 35.998\ngini = 0.061\nsamples = 223\nvalue = [216, 3, 4]\nclass = 0", fillcolor="#e6853f"] ;
706 -> 707 ;
708 [label="longitude <= 34.691\ngini = 0.054\nsamples = 218\nvalue = [212, 3, 3]\nclass = 0", fillcolor="#e6853f"] ;
707 -> 708 ;
709 [label="population <= 70.0\ngini = 0.119\nsamples = 96\nvalue = [90, 3, 3]\nclass = 0", fillcolor="#e78946"] ;
708 -> 709 ;
710 [label="latitude <= -8.717\ngini = 0.101\nsamples = 95\nvalue = [90, 2, 3]\nclass = 0", fillcolor="#e68844"] ;
709 -> 710 ;
711 [label="population <= 55.0\ngini = 0.064\nsamples = 91\nvalue = [88, 1, 2]\nclass = 0", fillcolor="#e68540"] ;
710 -> 711 ;
712 [label="latitude <= -9.255\ngini = 0.044\nsamples = 89\nvalue = [87, 1, 1]\nclass = 0", fillcolor="#e6843e"] ;
711 -> 712 ;
713 [label="latitude <= -9.257\ngini = 0.111\nsamples = 17\nvalue = [16, 0, 1]\nclass = 0", fillcolor="#e78945"] ;
712 -> 713 ;
714 [label="gini = 0.0\nsamples = 16\nvalue = [16, 0, 0]\nclass = 0", fillcolor="#e58139"] ;
713 -> 714 ;
715 [label="gini = 0.0\nsamples = 1\nvalue = [0, 0, 1]\nclass = 2", fillcolor="#8139e5"] ;
713 -> 715 ;
716 [label="longitude <= 34.213\ngini = 0.027\nsamples = 72\nvalue = [71, 1, 0]\nclass = 0", fillcolor="#e5833c"] ;
712 -> 716 ;
717 [label="longitude <= 34.213\ngini = 0.111\nsamples = 17\nvalue = [16, 1, 0]\nclass = 0", fillcolor="#e78945"] ;
716 -> 717 ;
718 [label="gini = 0.0\nsamples = 16\nvalue = [16, 0, 0]\nclass = 0", fillcolor="#e58139"] ;
717 -> 718 ;
719 [label="gini = 0.0\nsamples = 1\nvalue = [0, 1, 0]\nclass = 1", fillcolor="#39e581"] ;
717 -> 719 ;
720 [label="gini = 0.0\nsamples = 55\nvalue = [55, 0, 0]\nclass = 0", fillcolor="#e58139"] ;
716 -> 720 ;
721 [label="population <= 62.5\ngini = 0.5\nsamples = 2\nvalue = [1, 0, 1]\nclass = 0", fillcolor="#ffffff"] ;
711 -> 721 ;
722 [label="gini = 0.0\nsamples = 1\nvalue = [0, 0, 1]\nclass = 2", fillcolor="#8139e5"] ;
721 -> 722 ;
723 [label="gini = 0.0\nsamples = 1\nvalue = [1, 0, 0]\nclass = 0", fillcolor="#e58139"] ;
721 -> 723 ;
724 [label="longitude <= 34.218\ngini = 0.625\nsamples = 4\nvalue = [2, 1, 1]\nclass = 0", fillcolor="#f6d5bd"] ;
710 -> 724 ;
725 [label="gini = 0.0\nsamples = 2\nvalue = [2, 0, 0]\nclass = 0", fillcolor="#e58139"] ;
724 -> 725 ;
726 [label="latitude <= -8.715\ngini = 0.5\nsamples = 2\nvalue = [0, 1, 1]\nclass = 1", fillcolor="#ffffff"] ;
724 -> 726 ;
727 [label="gini = 0.0\nsamples = 1\nvalue = [0, 1, 0]\nclass = 1", fillcolor="#39e581"] ;
726 -> 727 ;
728 [label="gini = 0.0\nsamples = 1\nvalue = [0, 0, 1]\nclass = 2", fillcolor="#8139e5"] ;
726 -> 728 ;
729 [label="gini = 0.0\nsamples = 1\nvalue = [0, 1, 0]\nclass = 1", fillcolor="#39e581"] ;
709 -> 729 ;
730 [label="gini = 0.0\nsamples = 122\nvalue = [122, 0, 0]\nclass = 0", fillcolor="#e58139"] ;
708 -> 730 ;
731 [label="longitude <= 36.001\ngini = 0.32\nsamples = 5\nvalue = [4, 0, 1]\nclass = 0", fillcolor="#eca06a"] ;
707 -> 731 ;
732 [label="gini = 0.0\nsamples = 1\nvalue = [0, 0, 1]\nclass = 2", fillcolor="#8139e5"] ;
731 -> 732 ;
733 [label="gini = 0.0\nsamples = 4\nvalue = [4, 0, 0]\nclass = 0", fillcolor="#e58139"] ;
731 -> 733 ;
734 [label="latitude <= -6.225\ngini = 0.192\nsamples = 66\nvalue = [59, 1, 6]\nclass = 0", fillcolor="#e89050"] ;
706 -> 734 ;
735 [label="gini = 0.0\nsamples = 1\nvalue = [0, 0, 1]\nclass = 2", fillcolor="#8139e5"] ;
734 -> 735 ;
736 [label="longitude <= 35.909\ngini = 0.17\nsamples = 65\nvalue = [59, 1, 5]\nclass = 0", fillcolor="#e88e4d"] ;
734 -> 736 ;
737 [label="latitude <= -5.826\ngini = 0.146\nsamples = 63\nvalue = [58, 0, 5]\nclass = 0", fillcolor="#e78c4a"] ;
736 -> 737 ;
738 [label="latitude <= -5.831\ngini = 0.214\nsamples = 41\nvalue = [36, 0, 5]\nclass = 0", fillcolor="#e99254"] ;
737 -> 738 ;
739 [label="latitude <= -6.085\ngini = 0.18\nsamples = 40\nvalue = [36, 0, 4]\nclass = 0", fillcolor="#e88f4f"] ;
738 -> 739 ;
740 [label="gini = 0.0\nsamples = 18\nvalue = [18, 0, 0]\nclass = 0", fillcolor="#e58139"] ;
739 -> 740 ;
741 [label="latitude <= -6.084\ngini = 0.298\nsamples = 22\nvalue = [18, 0, 4]\nclass = 0", fillcolor="#eb9d65"] ;
739 -> 741 ;
742 [label="gini = 0.0\nsamples = 1\nvalue = [0, 0, 1]\nclass = 2", fillcolor="#8139e5"] ;
741 -> 742 ;
743 [label="latitude <= -5.966\ngini = 0.245\nsamples = 21\nvalue = [18, 0, 3]\nclass = 0", fillcolor="#e9965a"] ;
741 -> 743 ;
744 [label="gini = 0.0\nsamples = 7\nvalue = [7, 0, 0]\nclass = 0", fillcolor="#e58139"] ;
743 -> 744 ;
745 [label="latitude <= -5.95\ngini = 0.337\nsamples = 14\nvalue = [11, 0, 3]\nclass = 0", fillcolor="#eca36f"] ;
743 -> 745 ;
746 [label="longitude <= 35.312\ngini = 0.444\nsamples = 3\nvalue = [1, 0, 2]\nclass = 2", fillcolor="#c09cf2"] ;
745 -> 746 ;
747 [label="gini = 0.0\nsamples = 1\nvalue = [1, 0, 0]\nclass = 0", fillcolor="#e58139"] ;
746 -> 747 ;
748 [label="gini = 0.0\nsamples = 2\nvalue = [0, 0, 2]\nclass = 2", fillcolor="#8139e5"] ;
746 -> 748 ;
749 [label="latitude <= -5.839\ngini = 0.165\nsamples = 11\nvalue = [10, 0, 1]\nclass = 0", fillcolor="#e88e4d"] ;
745 -> 749 ;
750 [label="gini = 0.0\nsamples = 8\nvalue = [8, 0, 0]\nclass = 0", fillcolor="#e58139"] ;
749 -> 750 ;
751 [label="longitude <= 35.535\ngini = 0.444\nsamples = 3\nvalue = [2, 0, 1]\nclass = 0", fillcolor="#f2c09c"] ;
749 -> 751 ;
752 [label="gini = 0.0\nsamples = 2\nvalue = [2, 0, 0]\nclass = 0", fillcolor="#e58139"] ;
751 -> 752 ;
753 [label="gini = 0.0\nsamples = 1\nvalue = [0, 0, 1]\nclass = 2", fillcolor="#8139e5"] ;
751 -> 753 ;
754 [label="gini = 0.0\nsamples = 1\nvalue = [0, 0, 1]\nclass = 2", fillcolor="#8139e5"] ;
738 -> 754 ;
755 [label="gini = 0.0\nsamples = 22\nvalue = [22, 0, 0]\nclass = 0", fillcolor="#e58139"] ;
737 -> 755 ;
756 [label="payment_pay monthly <= 0.5\ngini = 0.5\nsamples = 2\nvalue = [1, 1, 0]\nclass = 0", fillcolor="#ffffff"] ;
736 -> 756 ;
757 [label="gini = 0.0\nsamples = 1\nvalue = [0, 1, 0]\nclass = 1", fillcolor="#39e581"] ;
756 -> 757 ;
758 [label="gini = 0.0\nsamples = 1\nvalue = [1, 0, 0]\nclass = 0", fillcolor="#e58139"] ;
756 -> 758 ;
759 [label="latitude <= -7.137\ngini = 0.408\nsamples = 14\nvalue = [10, 0, 4]\nclass = 0", fillcolor="#efb388"] ;
705 -> 759 ;
760 [label="latitude <= -8.385\ngini = 0.298\nsamples = 11\nvalue = [9, 0, 2]\nclass = 0", fillcolor="#eb9d65"] ;
759 -> 760 ;
761 [label="latitude <= -8.387\ngini = 0.5\nsamples = 4\nvalue = [2, 0, 2]\nclass = 0", fillcolor="#ffffff"] ;
760 -> 761 ;
762 [label="gini = 0.0\nsamples = 2\nvalue = [2, 0, 0]\nclass = 0", fillcolor="#e58139"] ;
761 -> 762 ;
763 [label="gini = 0.0\nsamples = 2\nvalue = [0, 0, 2]\nclass = 2", fillcolor="#8139e5"] ;
761 -> 763 ;
764 [label="gini = 0.0\nsamples = 7\nvalue = [7, 0, 0]\nclass = 0", fillcolor="#e58139"] ;
760 -> 764 ;
765 [label="latitude <= -6.306\ngini = 0.444\nsamples = 3\nvalue = [1, 0, 2]\nclass = 2", fillcolor="#c09cf2"] ;
759 -> 765 ;
766 [label="gini = 0.0\nsamples = 2\nvalue = [0, 0, 2]\nclass = 2", fillcolor="#8139e5"] ;
765 -> 766 ;
767 [label="gini = 0.0\nsamples = 1\nvalue = [1, 0, 0]\nclass = 0", fillcolor="#e58139"] ;
765 -> 767 ;
768 [label="gini = 0.0\nsamples = 1\nvalue = [0, 0, 1]\nclass = 2", fillcolor="#8139e5"] ;
704 -> 768 ;
769 [label="gini = 0.0\nsamples = 1\nvalue = [0, 0, 1]\nclass = 2", fillcolor="#8139e5"] ;
703 -> 769 ;
770 [label="extraction_type_nira/tanira <= 0.5\ngini = 0.5\nsamples = 2\nvalue = [0, 1, 1]\nclass = 1", fillcolor="#ffffff"] ;
668 -> 770 ;
771 [label="gini = 0.0\nsamples = 1\nvalue = [0, 1, 0]\nclass = 1", fillcolor="#39e581"] ;
770 -> 771 ;
772 [label="gini = 0.0\nsamples = 1\nvalue = [0, 0, 1]\nclass = 2", fillcolor="#8139e5"] ;
770 -> 772 ;
773 [label="gini = 0.0\nsamples = 2\nvalue = [0, 0, 2]\nclass = 2", fillcolor="#8139e5"] ;
667 -> 773 ;
774 [label="gps_height <= 11.5\ngini = 0.513\nsamples = 328\nvalue = [207, 27, 94]\nclass = 0", fillcolor="#f2c29f"] ;
410 -> 774 ;
775 [label="lga_Kongwa <= 0.5\ngini = 0.381\nsamples = 127\nvalue = [97, 7, 23]\nclass = 0", fillcolor="#eca572"] ;
774 -> 775 ;
776 [label="waterpoint_type_group_communal standpipe <= 0.5\ngini = 0.443\nsamples = 103\nvalue = [73, 7, 23]\nclass = 0", fillcolor="#efb083"] ;
775 -> 776 ;
777 [label="extraction_type_group_india mark ii <= 0.5\ngini = 0.112\nsamples = 34\nvalue = [32, 1, 1]\nclass = 0", fillcolor="#e78945"] ;
776 -> 777 ;
778 [label="gini = 0.0\nsamples = 24\nvalue = [24, 0, 0]\nclass = 0", fillcolor="#e58139"] ;
777 -> 778 ;
779 [label="construction_year <= 2002.5\ngini = 0.34\nsamples = 10\nvalue = [8, 1, 1]\nclass = 0", fillcolor="#eb9d65"] ;
777 -> 779 ;
780 [label="gini = 0.0\nsamples = 1\nvalue = [0, 1, 0]\nclass = 1", fillcolor="#39e581"] ;
779 -> 780 ;
781 [label="gps_height <= -4.0\ngini = 0.198\nsamples = 9\nvalue = [8, 0, 1]\nclass = 0", fillcolor="#e89152"] ;
779 -> 781 ;
782 [label="gini = 0.0\nsamples = 7\nvalue = [7, 0, 0]\nclass = 0", fillcolor="#e58139"] ;
781 -> 782 ;
783 [label="quality_group_good <= 0.5\ngini = 0.5\nsamples = 2\nvalue = [1, 0, 1]\nclass = 0", fillcolor="#ffffff"] ;
781 -> 783 ;
784 [label="gini = 0.0\nsamples = 1\nvalue = [1, 0, 0]\nclass = 0", fillcolor="#e58139"] ;
783 -> 784 ;
785 [label="gini = 0.0\nsamples = 1\nvalue = [0, 0, 1]\nclass = 2", fillcolor="#8139e5"] ;
783 -> 785 ;
786 [label="latitude <= -6.607\ngini = 0.538\nsamples = 69\nvalue = [41, 6, 22]\nclass = 0", fillcolor="#f4ccaf"] ;
776 -> 786 ;
787 [label="quantity_enough <= 0.5\ngini = 0.491\nsamples = 43\nvalue = [29, 6, 8]\nclass = 0", fillcolor="#efb388"] ;
786 -> 787 ;
788 [label="payment_pay monthly <= 0.5\ngini = 0.648\nsamples = 18\nvalue = [7, 4, 7]\nclass = 0", fillcolor="#ffffff"] ;
787 -> 788 ;
789 [label="basin_Rufiji <= 0.5\ngini = 0.602\nsamples = 16\nvalue = [7, 2, 7]\nclass = 0", fillcolor="#ffffff"] ;
788 -> 789 ;
790 [label="latitude <= -6.772\ngini = 0.602\nsamples = 14\nvalue = [7, 2, 5]\nclass = 0", fillcolor="#f9e3d3"] ;
789 -> 790 ;
791 [label="lga_Kilwa <= 0.5\ngini = 0.408\nsamples = 7\nvalue = [5, 0, 2]\nclass = 0", fillcolor="#efb388"] ;
790 -> 791 ;
792 [label="longitude <= 39.741\ngini = 0.278\nsamples = 6\nvalue = [5, 0, 1]\nclass = 0", fillcolor="#ea9a61"] ;
791 -> 792 ;
793 [label="gini = 0.0\nsamples = 5\nvalue = [5, 0, 0]\nclass = 0", fillcolor="#e58139"] ;
792 -> 793 ;
794 [label="gini = 0.0\nsamples = 1\nvalue = [0, 0, 1]\nclass = 2", fillcolor="#8139e5"] ;
792 -> 794 ;
795 [label="gini = 0.0\nsamples = 1\nvalue = [0, 0, 1]\nclass = 2", fillcolor="#8139e5"] ;
791 -> 795 ;
796 [label="longitude <= 36.434\ngini = 0.653\nsamples = 7\nvalue = [2, 2, 3]\nclass = 2", fillcolor="#e6d7fa"] ;
790 -> 796 ;
797 [label="gini = 0.0\nsamples = 2\nvalue = [0, 0, 2]\nclass = 2", fillcolor="#8139e5"] ;
796 -> 797 ;
798 [label="longitude <= 36.568\ngini = 0.64\nsamples = 5\nvalue = [2, 2, 1]\nclass = 0", fillcolor="#ffffff"] ;
796 -> 798 ;
799 [label="longitude <= 36.469\ngini = 0.5\nsamples = 4\nvalue = [2, 2, 0]\nclass = 0", fillcolor="#ffffff"] ;
798 -> 799 ;
800 [label="gini = 0.0\nsamples = 1\nvalue = [0, 1, 0]\nclass = 1", fillcolor="#39e581"] ;
799 -> 800 ;
801 [label="longitude <= 36.56\ngini = 0.444\nsamples = 3\nvalue = [2, 1, 0]\nclass = 0", fillcolor="#f2c09c"] ;
799 -> 801 ;
802 [label="gini = 0.0\nsamples = 2\nvalue = [2, 0, 0]\nclass = 0", fillcolor="#e58139"] ;
801 -> 802 ;
803 [label="gini = 0.0\nsamples = 1\nvalue = [0, 1, 0]\nclass = 1", fillcolor="#39e581"] ;
801 -> 803 ;
804 [label="gini = 0.0\nsamples = 1\nvalue = [0, 0, 1]\nclass = 2", fillcolor="#8139e5"] ;
798 -> 804 ;
805 [label="gini = 0.0\nsamples = 2\nvalue = [0, 0, 2]\nclass = 2", fillcolor="#8139e5"] ;
789 -> 805 ;
806 [label="gini = 0.0\nsamples = 2\nvalue = [0, 2, 0]\nclass = 1", fillcolor="#39e581"] ;
788 -> 806 ;
807 [label="lga_Temeke <= 0.5\ngini = 0.218\nsamples = 25\nvalue = [22, 2, 1]\nclass = 0", fillcolor="#e89153"] ;
787 -> 807 ;
808 [label="longitude <= 36.557\ngini = 0.159\nsamples = 23\nvalue = [21, 2, 0]\nclass = 0", fillcolor="#e78d4c"] ;
807 -> 808 ;
809 [label="longitude <= 36.53\ngini = 0.278\nsamples = 12\nvalue = [10, 2, 0]\nclass = 0", fillcolor="#ea9a61"] ;
808 -> 809 ;
810 [label="latitude <= -6.884\ngini = 0.165\nsamples = 11\nvalue = [10, 1, 0]\nclass = 0", fillcolor="#e88e4d"] ;
809 -> 810 ;
811 [label="gini = 0.0\nsamples = 1\nvalue = [0, 1, 0]\nclass = 1", fillcolor="#39e581"] ;
810 -> 811 ;
812 [label="gini = 0.0\nsamples = 10\nvalue = [10, 0, 0]\nclass = 0", fillcolor="#e58139"] ;
810 -> 812 ;
813 [label="gini = 0.0\nsamples = 1\nvalue = [0, 1, 0]\nclass = 1", fillcolor="#39e581"] ;
809 -> 813 ;
814 [label="gini = 0.0\nsamples = 11\nvalue = [11, 0, 0]\nclass = 0", fillcolor="#e58139"] ;
808 -> 814 ;
815 [label="population <= 60.5\ngini = 0.5\nsamples = 2\nvalue = [1, 0, 1]\nclass = 0", fillcolor="#ffffff"] ;
807 -> 815 ;
816 [label="gini = 0.0\nsamples = 1\nvalue = [0, 0, 1]\nclass = 2", fillcolor="#8139e5"] ;
815 -> 816 ;
817 [label="gini = 0.0\nsamples = 1\nvalue = [1, 0, 0]\nclass = 0", fillcolor="#e58139"] ;
815 -> 817 ;
818 [label="longitude <= 36.559\ngini = 0.497\nsamples = 26\nvalue = [12, 0, 14]\nclass = 2", fillcolor="#ede3fb"] ;
786 -> 818 ;
819 [label="management_vwc <= 0.5\ngini = 0.391\nsamples = 15\nvalue = [11, 0, 4]\nclass = 0", fillcolor="#eeaf81"] ;
818 -> 819 ;
820 [label="latitude <= -6.587\ngini = 0.444\nsamples = 3\nvalue = [1, 0, 2]\nclass = 2", fillcolor="#c09cf2"] ;
819 -> 820 ;
821 [label="gini = 0.0\nsamples = 1\nvalue = [0, 0, 1]\nclass = 2", fillcolor="#8139e5"] ;
820 -> 821 ;
822 [label="water_quality_soft <= 0.5\ngini = 0.5\nsamples = 2\nvalue = [1, 0, 1]\nclass = 0", fillcolor="#ffffff"] ;
820 -> 822 ;
823 [label="gini = 0.0\nsamples = 1\nvalue = [0, 0, 1]\nclass = 2", fillcolor="#8139e5"] ;
822 -> 823 ;
824 [label="gini = 0.0\nsamples = 1\nvalue = [1, 0, 0]\nclass = 0", fillcolor="#e58139"] ;
822 -> 824 ;
825 [label="extraction_type_group_gravity <= 0.5\ngini = 0.278\nsamples = 12\nvalue = [10, 0, 2]\nclass = 0", fillcolor="#ea9a61"] ;
819 -> 825 ;
826 [label="gini = 0.0\nsamples = 7\nvalue = [7, 0, 0]\nclass = 0", fillcolor="#e58139"] ;
825 -> 826 ;
827 [label="latitude <= -6.378\ngini = 0.48\nsamples = 5\nvalue = [3, 0, 2]\nclass = 0", fillcolor="#f6d5bd"] ;
825 -> 827 ;
828 [label="gini = 0.0\nsamples = 3\nvalue = [3, 0, 0]\nclass = 0", fillcolor="#e58139"] ;
827 -> 828 ;
829 [label="gini = 0.0\nsamples = 2\nvalue = [0, 0, 2]\nclass = 2", fillcolor="#8139e5"] ;
827 -> 829 ;
830 [label="gps_height <= 4.5\ngini = 0.165\nsamples = 11\nvalue = [1, 0, 10]\nclass = 2", fillcolor="#8e4de8"] ;
818 -> 830 ;
831 [label="gini = 0.0\nsamples = 10\nvalue = [0, 0, 10]\nclass = 2", fillcolor="#8139e5"] ;
830 -> 831 ;
832 [label="gini = 0.0\nsamples = 1\nvalue = [1, 0, 0]\nclass = 0", fillcolor="#e58139"] ;
830 -> 832 ;
833 [label="gini = 0.0\nsamples = 24\nvalue = [24, 0, 0]\nclass = 0", fillcolor="#e58139"] ;
775 -> 833 ;
834 [label="longitude <= 36.043\ngini = 0.566\nsamples = 201\nvalue = [110, 20, 71]\nclass = 0", fillcolor="#f7d9c4"] ;
774 -> 834 ;
835 [label="quantity_enough <= 0.5\ngini = 0.198\nsamples = 9\nvalue = [1, 0, 8]\nclass = 2", fillcolor="#9152e8"] ;
834 -> 835 ;
836 [label="gini = 0.0\nsamples = 8\nvalue = [0, 0, 8]\nclass = 2", fillcolor="#8139e5"] ;
835 -> 836 ;
837 [label="gini = 0.0\nsamples = 1\nvalue = [1, 0, 0]\nclass = 0", fillcolor="#e58139"] ;
835 -> 837 ;
838 [label="payment_type_on failure <= 0.5\ngini = 0.559\nsamples = 192\nvalue = [109, 20, 63]\nclass = 0", fillcolor="#f6d2b8"] ;
834 -> 838 ;
839 [label="management_wug <= 0.5\ngini = 0.586\nsamples = 98\nvalue = [45, 10, 43]\nclass = 0", fillcolor="#fefaf8"] ;
838 -> 839 ;
840 [label="quantity_enough <= 0.5\ngini = 0.586\nsamples = 90\nvalue = [45, 10, 35]\nclass = 0", fillcolor="#fae8db"] ;
839 -> 840 ;
841 [label="construction_year <= 2011.5\ngini = 0.586\nsamples = 35\nvalue = [11, 5, 19]\nclass = 2", fillcolor="#d5bdf6"] ;
840 -> 841 ;
842 [label="lga_Liwale <= 0.5\ngini = 0.547\nsamples = 31\nvalue = [7, 5, 19]\nclass = 2", fillcolor="#c09cf2"] ;
841 -> 842 ;
843 [label="gps_height <= 352.0\ngini = 0.483\nsamples = 27\nvalue = [7, 2, 18]\nclass = 2", fillcolor="#ba92f1"] ;
842 -> 843 ;
844 [label="construction_year <= 2009.0\ngini = 0.29\nsamples = 18\nvalue = [2, 1, 15]\nclass = 2", fillcolor="#995eea"] ;
843 -> 844 ;
845 [label="longitude <= 36.393\ngini = 0.215\nsamples = 17\nvalue = [1, 1, 15]\nclass = 2", fillcolor="#9152e8"] ;
844 -> 845 ;
846 [label="population <= 591.0\ngini = 0.5\nsamples = 2\nvalue = [1, 0, 1]\nclass = 0", fillcolor="#ffffff"] ;
845 -> 846 ;
847 [label="gini = 0.0\nsamples = 1\nvalue = [0, 0, 1]\nclass = 2", fillcolor="#8139e5"] ;
846 -> 847 ;
848 [label="gini = 0.0\nsamples = 1\nvalue = [1, 0, 0]\nclass = 0", fillcolor="#e58139"] ;
846 -> 848 ;
849 [label="payment_type_monthly <= 0.5\ngini = 0.124\nsamples = 15\nvalue = [0, 1, 14]\nclass = 2", fillcolor="#8a47e7"] ;
845 -> 849 ;
850 [label="gini = 0.0\nsamples = 13\nvalue = [0, 0, 13]\nclass = 2", fillcolor="#8139e5"] ;
849 -> 850 ;
851 [label="water_quality_salty <= 0.5\ngini = 0.5\nsamples = 2\nvalue = [0, 1, 1]\nclass = 1", fillcolor="#ffffff"] ;
849 -> 851 ;
852 [label="gini = 0.0\nsamples = 1\nvalue = [0, 1, 0]\nclass = 1", fillcolor="#39e581"] ;
851 -> 852 ;
853 [label="gini = 0.0\nsamples = 1\nvalue = [0, 0, 1]\nclass = 2", fillcolor="#8139e5"] ;
851 -> 853 ;
854 [label="gini = 0.0\nsamples = 1\nvalue = [1, 0, 0]\nclass = 0", fillcolor="#e58139"] ;
844 -> 854 ;
855 [label="district_code <= 3.5\ngini = 0.568\nsamples = 9\nvalue = [5, 1, 3]\nclass = 0", fillcolor="#f6d5bd"] ;
843 -> 855 ;
